tree
version=v4
num_class=1
num_tree_per_iteration=1
label_index=0
max_feature_idx=86
objective=regression
feature_names=activity_2_cnt bigram_tok_2 bigram_tok_4 bigram_tok_5 bigram_tok_7 cursor_pos_acc_kurt cursor_pos_acc_max cursor_pos_acc_mean cursor_pos_acc_neg cursor_pos_acc_skew cursor_pos_acc_std cursor_pos_acc_sum cursor_pos_neg_change_count cursor_pos_roc_kurt cursor_pos_roc_max cursor_pos_roc_mean cursor_pos_roc_skew down_event_12 down_event_13 down_event_15 down_event_2 down_event_3 down_event_5 down_event_6 down_event_7 down_event_9 evid_acc_kurt evid_acc_skew evid_acc_std inter_key_largest_lantency inter_key_median_lantency one_gram_tok_0 one_gram_tok_1 one_gram_tok_2 one_gram_tok_3 one_gram_tok_4 one_gram_tok_5 one_gram_tok_6 one_gram_tok_7 one_gram_tok_8 one_gram_tok_9 p_burst_max p_burst_median paragraph_len_first paragraph_len_last paragraph_len_max paragraph_len_mean paragraph_len_median paragraph_len_min paragraph_len_q1 paragraph_len_q3 paragraph_word_count_first paragraph_word_count_last paragraph_word_count_max paragraph_word_count_median paragraph_word_count_min paragraph_word_count_q1 paragraph_word_count_q3 pauses_1_half_sec pauses_1_sec pauses_3_sec pauses_half_sec pos_change_count r_burst_count r_burst_mean r_burst_std r_burst_sum roc_count roc_kurt roc_std sent_len_first sent_len_last sent_len_max sent_len_mean sent_len_median sent_len_min sent_len_q1 sent_len_q3 sent_word_count_first sent_word_count_max sent_word_count_mean sent_word_count_q3 std_pause_time total_pause_time word_count_acc_kurt word_count_acc_pst word_count_acc_skew
feature_infos=[2:6100] [0:63] [0:32] [0:26] [0:17] [-0.60850030399522392:278.99813361606959] [0.36111111111111116:229.38888888888891] [-1.0010510938703494e-16:1.4600193200550003e-16] [8:279] [-5.4357413878013174:9.7940348981409642] [0.076214902303000445:24.650254813252463] [-3.0031532816110484e-14:4.2632564145606011e-14] [0:90] [-1.6055586199561245:301.92601623227335] [2:625.79999999999995] [-0.0050847457627120575:4.9620915032679749] [-15.988961926598888:7.6586719677859252] [0:566] [0:3549] [0:4579] [0:535] [0:46] [0:5261] [0:130] [0:91] [36:4040] [-0.84085002643221607:168.40503579522209] [-6.7392236997818191:1.8067977035150427] [0.19850943145422117:2.3494721814164987] [2.9900000000000002:1230.7280000000001] [0:0.43149999999999999] [6:267] [8:246] [3:258] [5:191] [3:138] [2:101] [0:74] [0:63] [0:41] [0:43] [34:2688] [2:1466] [4:3117] [1:3117] [163:3872] [69.5:3117] [5:3117] [1:3117] [1:3117] [42.5:3117] [1:566] [1:737] [28:737] [4:566] [1:566] [1:566] [13:566] [0:117] [1:198] [0:134] [7:468] [18:318] [2:915] [1:116.18518518518519] [0:222.85814694092792] [3:4567] [53:837] [-1.2880680119148067:365.21686641588286] [0.10776439755284144:12.142788464372012] [3:1494] [1:1316] [63:1723] [37.878787878787875:1316] [21:1316] [1:1316] [11:1316] [43:1316] [1:271] [12:305] [7.4146341463414638:234] [8.75:234] [0.18401149997754457:26.954932118764848] [78.659999999999982:2193.4560000000006] [-0.55257846687792389:113.45803614127853] [4:156] [-6.0698531081396823:4.6794032717483054]
tree_sizes=2619 2833 2832 2835 2839 2844 2838 2837 2836 2827 2837 2840 2842 2838 2839 2830 2843 2840 2839 2838 2848 2841 2842 2844 2839 2844 2843 2841 2844 2840 2838 2834 2837 2835 2836 2838 2838 2844 2827 2843 2842 2840 2836 2841 2828 2840 2832 2836 2833 2834 2831 2833 2840 2826 2843 2836 2849 2832 2835 2843 2831 2848 2838 2841 2836 2837 2846 2832 2842 2834 2838 2839 2831 2840 2845 2832 2847 2835 2829 2831 2842 2846 2838 2837 2832 2841 2838 2829 2847 2845 2850 2840 2849 2844 2848 2824 2846 2848 2839 2831 2847 2832 2848 2836 2834 2847 2854 2831 2840 2837 2833 2854 2839 2842 2830 2851 2837 2844 2835 2840 2842 2843 2828 2836 2848 2843 2835 2835 2845 2834 2834 2848 2845 2837 2832 2839 2830 2834 2837 2836 2830 2831 2849 2844 2848 2827 2835 2832 2837 2825 2833 2839 2846 2841 2838 2838 2842 2845 2836 2848 2835 2847 2837 2839 2845 2833 2845 2838 2837 2841 2845 2839 2848 2840 2838 2838 2844 2840 2846 2834 2837 2832 2837 2835 2833 2849 2846 2842 2852 2853 2833 2852 2841 2843 2843 2847 2839 2843 2848 2851 2857 2836 2842 2847 2843 2853 2852 2850 2846 2850 2856 2851 2840 2846 2849 2847 2856 2835 2845 2853 2843 2856 2849 2844 2846 2836 2855 2850 2849 2843 2842 2855 2852 2846 2848 2863 2846 2847 2847 2838 2844 2845 2853 2851 2858 2847 2845 2850 2850 2860 2846 2840 2851 2841 2843 2834 2862 2851 2845 2858 2847 2844 2857 2847 2845 2833 2842 2849 2842 2852 2856 2844 2855 2852 2844 2843 2842 2847 2857 2852 2849 2855 2847 2844 2851 2858 2851 2850 2860 2858 2846 2857 2856 2849 2854 2834 2848 2847 2856 2860 2858 2855 2846 2852 2863 2859 2860 2853 2863 2868 2862 2839 2853 2856 2857 2858 2844 2859 2868 2858 2850 2846 2871 2842 2854 2848 2850 2863 2847 2860 2860 2841 2839 2848 2866 2854 2842 2864 2841 2858 2868 2861 2857 2856 2860 2841 2847 2858 2860 2875 2842 2872 2857 2872 2870 2867 2847 2874 2858 2861 2862 2849 2869 2881 2860 2866 2859 2861 2863 2869 2859 2872 2858 2858 2872 2881 2861 2864 2868 2861 2864 2856 2864 2844 2867 2841 2863 2848 2853 2857 2847 2861 2861 2859 2857 2853 2857 2848 2862 2855 2878 2852 2855 2852 2859 2859 2851 2858 2851 2871 2864 2855 2862 2856 2869 2865 2867 2872 2862 2861 2868 2864 2867 2864 2868 2865 2855 2871 2865 2857 2862 2870 2873 2861 2871 2859 2865 2859 2865 2871 2866 2867 2847 2867 2863 2845 2866 2847 2841 2866 2862 2871 2867 2872 2873 2862 2872 2868 2864 2857 2867 2848 2858 2863 2865 2863 2856 2858 2867 2856 2873 2863 2858 2859 2860 2860 2851 2860 2869 2854 2867 2860 2854 2855 2863 2861 2857 2862 2855 2860 2870 2865 2861 2856 2853 2865 2862 2861 2862 2864 2848 2861 2873 2854 2858 2876 2872 2848 2855 2866 2869 2857 2858 2857 2868 2850 2873 2852 2869 2860 2868 2872 2853 2851 2869 2866 2858 2863 2860 2867 2870 2860 2857 2873 2875 2862 2875 2869 2860 2873 2859 2868 2866 2873 2869 2861 2866 2862 2865 2863 2871 2853 2862 2862 2872 2868 2868 2859 2882 2860 2870 2858 2849 2871 2860 2875 2880 2873 2866 2874 2864 2863 2875 2860 2871 2846 2862 2882 2869 2878 2856 2874 2872 2858 2859 2879 2868 2877 2882 2874 2875 2868 2869 2870 2871 2881 2877 2872 2869 2873 2862 2873 2879 2882 2867 2857 2868 2873 2863 2865 2867 2866 2867 2865 2868 2874 2867 2881 2869 2871 2867 2862 2864 2862 2864 2876 2856 2867 2878 2859 2884 2870 2856 2868 2877 2873 2886 2872 2865 2859 2872 2877 2871 2879 2841 2874 2854 2880 2865 2868 2878 2886 2884 2875 2868 2863 2870 2885 2888 2880 2874 2880 2884 2864 2866 2881 2874 2869 2880 2866 2888 2881 2861 2883 2883 2887 2870 2869 2869 2855 2874 2870 2846 2880 2875 2878 2876 2874 2876 2869 2876 2889 2877 2846 2876 2878 2881 2874 2872 2874 2872 2861 2874 2878 2876 2863 2868 2881 2872 2884 2875 2882 2880 2890 2871 2879 2891 2875 2875 2879 2884 2879 2876 2887 2881 2881 2879 2876 2890 2883 2884 2883 2891 2875 2889 2884

Tree=0
num_leaves=31
num_cat=0
split_feature=31 69 36 23 36 35 38 37 40 47 60 34 69 82 23 23 39 36 30 36 23 74 69 74 53 6 79 35 44 53
split_gain=684.646 161.326 132.057 43.7251 36.2518 33.946 30.9884 18.6557 17.76 16.0139 15.7936 15.6093 13.6191 11.9706 11.2068 10.5557 9.93721 9.16772 8.96296 7.63157 7.62883 7.59262 9.26604 7.56637 6.50669 6.4186 6.03571 4.89619 4.84836 4.77783
threshold=63.500000000000007 0.27377349462165174 31.500000000000004 2.5000000000000004 23.500000000000004 27.500000000000004 16.500000000000004 16.500000000000004 5.5000000000000009 443.25000000000006 24.500000000000004 20.500000000000004 0.30193447827214259 2.576652988580348 21.500000000000004 11.500000000000002 3.5000000000000004 22.500000000000004 0.098500000000000018 51.500000000000007 7.5000000000000009 77.750000000000014 0.22635713626430423 66.250000000000014 220.50000000000003 73.180555555555571 45.500000000000007 19.500000000000004 369.50000000000006 178.50000000000003
decision_type=2 2 2 2 2 2 2 2 2 2 2 2 2 2 2 2 2 2 2 2 2 2 2 2 2 2 2 2 2 2
left_child=1 3 5 10 11 12 18 20 21 -8 -1 -3 -2 17 -11 -6 27 -10 24 29 -7 -5 -23 -18 28 -9 -12 -13 -4 -16
right_child=2 4 6 8 15 7 9 25 13 14 26 16 -14 -15 19 -17 23 -19 -20 -21 -22 22 -24 -25 -26 -27 -28 -29 -30 -31
leaf_value=3.7013381188714765 3.7074400922566837 3.7070442589527386 3.7142547852218204 3.7053581117737302 3.7103512764917181 3.7104507630006571 3.7144352845342872 3.7142286560683728 3.7091232062666091 3.7155834745668934 3.7059966398724788 3.706747157510518 3.7113775922593444 3.7069946135320904 3.7178921553267692 3.7133577509859554 3.7083775922327353 3.7129230467767385 3.7116384618259501 3.7188821794261466 3.7128712631571421 3.7059256691725966 3.7088964601724257 3.7111758877205423 3.7125080270433415 3.7169775922112351 3.702901401914426 3.7095096677055377 3.7161486765511698 3.7162200579904612
leaf_weight=38 32 45 57 77 38 41 52 141 57 68 63 23 70 47 103 126 28 22 23 109 158 52 53 176 23 25 21 53 83 73
leaf_count=38 32 45 57 77 38 41 52 141 57 68 63 23 70 47 103 126 28 22 23 109 158 52 53 176 23 25 21 53 83 73
internal_value=3.71194 3.70878 3.71468 3.70655 3.71074 3.71269 3.71625 3.7134 3.70755 3.71703 3.70401 3.70978 3.71014 3.70899 3.71741 3.71266 3.71022 3.71018 3.71456 3.71784 3.71237 3.70655 3.70743 3.71079 3.71497 3.71464 3.70522 3.70867 3.71538 3.7172
internal_weight=0 919 1058 430 489 467 591 365 308 405 122 325 102 126 353 164 280 79 186 285 199 182 105 204 163 166 84 76 140 176
internal_count=1977 919 1058 430 489 467 591 365 308 405 122 325 102 126 353 164 280 79 186 285 199 182 105 204 163 166 84 76 140 176
is_linear=0
shrinkage=1


Tree=1
num_leaves=31
num_cat=0
split_feature=31 69 36 23 36 35 38 37 40 47 60 34 69 82 23 23 39 36 30 36 23 59 8 74 53 6 64 32 3 35
split_gain=677.817 159.717 130.74 43.289 35.8902 33.6074 30.6792 18.4697 17.5829 15.8541 15.636 15.4536 13.4833 11.8512 11.095 10.4504 9.83809 9.07627 8.87356 7.55544 7.55274 7.54239 9.09136 7.4909 6.44179 6.35457 6.01421 5.59561 5.38484 4.84735
threshold=63.500000000000007 0.27377349462165174 31.500000000000004 2.5000000000000004 23.500000000000004 27.500000000000004 16.500000000000004 16.500000000000004 5.5000000000000009 443.25000000000006 24.500000000000004 20.500000000000004 0.30193447827214259 2.576652988580348 21.500000000000004 11.500000000000002 3.5000000000000004 22.500000000000004 0.098500000000000018 51.500000000000007 7.5000000000000009 48.500000000000007 100.50000000000001 66.250000000000014 220.50000000000003 73.180555555555571 3.3489130434782615 46.500000000000007 3.5000000000000004 19.500000000000004
decision_type=2 2 2 2 2 2 2 2 2 2 2 2 2 2 2 2 2 2 2 2 2 2 2 2 2 2 10 2 2 2
left_child=1 3 5 10 11 12 18 20 21 -8 -1 -3 -2 17 -11 -6 29 -10 24 -16 -7 -5 -23 -18 -4 -9 28 -24 -12 -13
right_child=2 4 6 8 15 7 9 25 13 14 26 16 -14 -15 19 -17 23 -19 -20 -21 -22 22 27 -25 -26 -27 -28 -29 -30 -31
leaf_value=-0.010546164136183889 -0.0044747005333192645 -0.0048685546567042671 0.0034231119943516596 -0.0037716934000546075 -0.0015780721604824067 -0.0014790831106465039 0.0024855158248772986 0.0022799206044234284 -0.0028000020327275262 0.0036279649484683486 -0.0089026744076699926 -0.0051641705340665324 -0.00055688800769192832 -0.0049179517921615155 0.0052350296194411143 0.001413369985326888 -0.0035418879826154027 0.00098083929582075641 -0.00029732270085293313 0.006910176247084906 0.00092931457476902609 -0.0076805727660655973 -0.0061429382759061726 -0.00075758395970545024 0.00056789466868276183 0.0050151120185852049 -0.0046826388629583214 -0.0034640982874802181 -0.005826268863677978 -0.0024154728594815954
leaf_weight=38 32 45 140 53 38 41 52 141 57 68 33 23 70 47 176 126 28 22 23 109 158 50 44 176 23 25 26 35 25 53
leaf_count=38 32 45 140 53 38 41 52 141 57 68 33 23 70 47 176 126 28 22 23 109 158 50 44 176 23 25 26 35 25 53
internal_value=0 -0.00314129 0.00272859 -0.00536413 -0.00118665 0.000751313 0.004291 0.00146037 -0.00436567 0.00506302 -0.00788482 -0.00214889 -0.00178601 -0.00292988 0.00544271 0.000720231 -0.0017118 -0.00174711 0.00260999 0.0058757 0.000433112 -0.00535968 -0.0060121 -0.00113974 0.00302023 0.00269185 -0.00668088 -0.00495611 -0.00757664 -0.00324732
internal_weight=0 919 1058 430 489 467 591 365 308 405 122 325 102 126 353 164 280 79 186 285 199 182 129 204 163 166 84 79 58 76
internal_count=1977 919 1058 430 489 467 591 365 308 405 122 325 102 126 353 164 280 79 186 285 199 182 129 204 163 166 84 79 58 76
is_linear=0
shrinkage=0.005


Tree=2
num_leaves=31
num_cat=0
split_feature=31 69 36 23 36 35 38 37 40 47 60 34 69 82 23 23 39 36 30 74 69 36 23 74 53 6 64 3 44 35
split_gain=671.056 158.124 129.436 42.8571 35.5322 33.2721 30.3732 18.2854 17.4075 15.696 15.4801 15.2994 13.3488 11.733 10.9844 10.3461 9.73995 8.98573 8.78504 7.50522 9.12038 7.48008 7.4774 7.41617 6.37753 6.29119 5.95422 5.33113 4.8 4.79899
threshold=63.500000000000007 0.27377349462165174 31.500000000000004 2.5000000000000004 23.500000000000004 27.500000000000004 16.500000000000004 16.500000000000004 5.5000000000000009 443.25000000000006 24.500000000000004 20.500000000000004 0.30193447827214259 2.576652988580348 21.500000000000004 11.500000000000002 3.5000000000000004 22.500000000000004 0.098500000000000018 77.750000000000014 0.22635713626430423 51.500000000000007 7.5000000000000009 66.250000000000014 220.50000000000003 73.180555555555571 3.3489130434782615 3.5000000000000004 369.50000000000006 19.500000000000004
decision_type=2 2 2 2 2 2 2 2 2 2 2 2 2 2 2 2 2 2 2 2 2 2 2 2 2 2 10 2 2 2
left_child=1 3 5 10 11 12 18 22 19 -8 -1 -3 -2 17 -11 -6 29 -10 24 -5 -21 -16 -7 -18 28 -9 27 -12 -4 -13
right_child=2 4 6 8 15 7 9 25 13 14 26 16 -14 -15 21 -17 23 -19 -20 20 -22 -23 -24 -25 -26 -27 -28 -29 -30 -31
leaf_value=-0.010493433114729429 -0.0044523269613273445 -0.0048442118134763507 0.0022888035000416273 -0.006518552458131468 -0.0015701818074050702 -0.0014716877006902928 0.0024730882564416297 0.0022685209434505898 -0.0027860019133802046 0.0036098251020645396 -0.0088581610809672969 -0.005138349665895753 -0.00055410347027438033 -0.0048933620830165581 0.0052088545889339664 0.0014063031663970342 -0.0035241784634334702 0.00097593507306142295 -0.00029583614805470343 -0.0059510928134505568 -0.0030037441020304301 0.0068756251980405334 0.00092466803102553643 -0.00075379605574364022 0.00056505512608134238 0.0049900363683700565 -0.004659225573906532 -0.0057971376180648805 0.0041732253681823431 -0.0024033954908263011
leaf_weight=38 32 45 57 77 38 41 52 141 57 68 33 23 70 47 176 126 28 22 23 52 53 109 158 176 23 25 26 25 83 53
leaf_count=38 32 45 57 77 38 41 52 141 57 68 33 23 70 47 176 126 28 22 23 52 53 109 158 176 23 25 26 25 83 53
internal_value=0 -0.00312558 0.00271494 -0.00533731 -0.00118071 0.000747557 0.00426955 0.00145307 -0.00434384 0.0050377 -0.00784539 -0.00213814 -0.00177708 -0.00291523 0.00541549 0.00071663 -0.00170324 -0.00173837 0.00259694 -0.00533288 -0.00446338 0.00584632 0.000430946 -0.00113404 0.00300513 0.00267839 -0.00664747 -0.00753875 0.003406 -0.00323108
internal_weight=0 919 1058 430 489 467 591 365 308 405 122 325 102 126 353 164 280 79 186 182 105 285 199 204 163 166 84 58 140 76
internal_count=1977 919 1058 430 489 467 591 365 308 405 122 325 102 126 353 164 280 79 186 182 105 285 199 204 163 166 84 58 140 76
is_linear=0
shrinkage=0.005


Tree=3
num_leaves=31
num_cat=0
split_feature=31 69 36 23 36 35 38 37 40 47 60 34 69 82 23 23 36 36 30 39 59 8 36 23 53 6 79 32 44 53
split_gain=664.362 156.546 128.145 42.4296 35.1777 32.9402 30.0702 18.103 17.2338 15.5394 15.3257 15.1468 13.2156 11.616 10.8748 10.2429 9.67818 8.8961 8.69741 8.1059 7.43819 8.99089 7.40547 7.40281 6.31392 6.22843 5.92705 5.51412 4.75212 4.73017
threshold=63.500000000000007 0.27377349462165174 31.500000000000004 2.5000000000000004 23.500000000000004 27.500000000000004 16.500000000000004 16.500000000000004 5.5000000000000009 443.25000000000006 24.500000000000004 20.500000000000004 0.30193447827214259 2.576652988580348 21.500000000000004 11.500000000000002 9.5000000000000018 22.500000000000004 0.098500000000000018 5.5000000000000009 48.500000000000007 100.50000000000001 51.500000000000007 7.5000000000000009 220.50000000000003 73.180555555555571 45.500000000000007 46.500000000000007 369.50000000000006 178.50000000000003
decision_type=2 2 2 2 2 2 2 2 2 2 2 2 2 2 2 2 2 2 2 2 2 2 2 2 2 2 2 2 2 2
left_child=1 3 5 10 11 12 18 23 20 -8 -1 -3 -2 17 -11 -6 -13 -10 24 -18 -5 -22 29 -7 28 -9 -12 -23 -4 -16
right_child=2 4 6 8 15 7 9 25 13 14 26 16 -14 -15 22 -17 19 -19 -20 -21 21 27 -24 -25 -26 -27 -28 -29 -30 -31
leaf_value=-0.01044096650261628 -0.0044300652854144572 -0.0048199908269776241 0.0022773594762149612 -0.0037292381347912664 -0.0015623308875058828 -0.0014643292074523321 0.0024607228989211413 0.0022571783423001039 -0.00277207203601536 0.0035917761330218879 -0.0058474223788768532 -0.0048780873959714715 -0.00055133297613688874 -0.0048688951879739765 0.0058728827463770377 0.0013992716236010431 -0.0022692273430250311 0.00097105543044480411 -0.00029435693569805312 -0.00049478830966523022 -0.0076133427739143366 -0.0060821311243555764 0.0068412474590703988 0.00092004462935124784 0.00056222986591898878 0.0049650863885879514 -0.0089146702062515987 -0.0034228673726320268 0.0041523593448730836 0.0042091460423926783
leaf_weight=38 32 45 57 53 38 41 52 141 57 68 63 22 70 47 103 126 135 22 23 123 50 44 109 158 23 25 21 35 83 73
leaf_count=38 32 45 57 53 38 41 52 141 57 68 63 22 70 47 103 126 135 22 23 123 50 44 109 158 23 25 21 35 83 73
internal_value=0 -0.00310996 0.00270137 -0.00531062 -0.00117481 0.000743819 0.0042482 0.00144581 -0.00432212 0.00501252 -0.00780617 -0.00212745 -0.00176819 -0.00290066 0.00538842 0.000713047 -0.00169472 -0.00172968 0.00258396 -0.00142327 -0.00530621 -0.00595412 0.00581709 0.000428792 0.0029901 0.002665 -0.00661423 -0.00490398 0.00338897 0.00518281
internal_weight=0 919 1058 430 489 467 591 365 308 405 122 325 102 126 353 164 280 79 186 258 182 129 285 199 163 166 84 79 140 176
internal_count=1977 919 1058 430 489 467 591 365 308 405 122 325 102 126 353 164 280 79 186 258 182 129 285 199 163 166 84 79 140 176
is_linear=0
shrinkage=0.005


Tree=4
num_leaves=31
num_cat=0
split_feature=31 69 36 23 36 35 38 37 40 40 60 34 47 69 82 23 36 36 30 39 23 74 69 23 53 6 64 23 68 3
split_gain=657.735 154.985 126.867 42.0064 34.8268 32.6116 29.7703 17.9224 17.0619 15.4726 15.1728 14.9957 13.5903 13.0838 11.5001 10.1407 9.58164 8.80736 8.61066 8.02504 7.85056 7.41886 9.00567 7.32897 6.25094 6.16631 5.87902 5.61176 5.60944 5.26977
threshold=63.500000000000007 0.27377349462165174 31.500000000000004 2.5000000000000004 23.500000000000004 27.500000000000004 16.500000000000004 16.500000000000004 5.5000000000000009 17.500000000000004 24.500000000000004 20.500000000000004 461.50000000000006 0.30193447827214259 2.576652988580348 11.500000000000002 9.5000000000000018 22.500000000000004 0.098500000000000018 5.5000000000000009 21.500000000000004 77.750000000000014 0.2148176161295812 7.5000000000000009 220.50000000000003 73.180555555555571 3.3489130434782615 33.500000000000007 6.5772673751519237 3.5000000000000004
decision_type=2 2 2 2 2 2 2 2 2 2 2 2 2 2 2 2 2 2 2 2 2 2 2 2 2 2 10 2 2 2
left_child=1 3 5 10 11 13 18 23 21 12 -1 -3 -8 -2 17 -6 -13 -10 24 -18 -14 -5 -23 -7 -4 -9 29 -11 -22 -12
right_child=2 4 6 8 15 7 9 25 14 27 26 16 20 -15 -16 -17 19 -19 -20 -21 28 22 -24 -25 -26 -27 -28 -29 -30 -31
leaf_value=-0.010388761209814173 -0.0044079149141907697 -0.00479589096042845 0.0033720216634018081 -0.0064585156061432586 -0.0015545192517732321 -0.0014570075655128897 0.0020592459950309534 0.0022458923993803931 -0.0027582116294325443 0.005293784691393375 -0.0087785915714321712 -0.0048536969179456884 0.0031179348915815353 -0.00054857630601951057 -0.0048445506758512339 0.001392275288346268 -0.0022578811822114167 0.00096620015799999239 -0.00029288516096446826 -0.0004923144037403712 0.0058344254710457543 -0.0062447008854005391 -0.0032431842596270144 0.00091544442727595947 0.00055941879101421529 0.0049402609258890149 -0.0046055126820619295 0.0075293985754251481 0.0038271181917060976 -0.0057352339863777158
leaf_weight=38 32 45 140 77 38 41 52 141 57 50 33 22 50 70 47 126 135 22 23 123 143 41 64 158 23 25 26 64 46 25
leaf_count=38 32 45 140 77 38 41 52 141 57 50 33 22 50 70 47 126 135 22 23 123 143 41 64 158 23 25 26 64 46 25
internal_value=0 -0.00309441 0.00268786 -0.00528407 -0.00116894 0.0007401 0.00422696 0.00143858 -0.00430051 0.00498745 -0.00776714 -0.00211682 0.00437577 -0.00175935 -0.00288616 0.000709481 -0.00168625 -0.00172103 0.00257104 -0.00141616 0.00487978 -0.00527968 -0.00441521 0.000426648 0.00297515 0.00265167 -0.00658116 0.00654887 0.00534587 -0.0074668
internal_weight=0 919 1058 430 489 467 591 365 308 405 122 325 291 102 126 164 280 79 186 258 239 182 105 199 163 166 84 114 189 58
internal_count=1977 919 1058 430 489 467 591 365 308 405 122 325 291 102 126 164 280 79 186 258 239 182 105 199 163 166 84 114 189 58
is_linear=0
shrinkage=0.005


Tree=5
num_leaves=31
num_cat=0
split_feature=31 69 36 23 36 35 38 37 40 40 60 34 47 69 23 23 39 76 30 23 74 69 74 23 79 53 6 79 23 68
split_gain=651.174 153.439 125.601 41.5874 34.4794 32.2864 29.4733 17.7437 16.8917 15.3182 15.0214 14.8461 13.4548 12.9533 11.3879 10.0396 9.50543 8.78059 8.52477 7.77225 7.34486 8.91584 7.32499 7.25586 7.01526 6.18858 6.1048 5.8441 5.55578 5.55349
threshold=63.500000000000007 0.27377349462165174 31.500000000000004 2.5000000000000004 23.500000000000004 27.500000000000004 16.500000000000004 16.500000000000004 5.5000000000000009 17.500000000000004 24.500000000000004 20.500000000000004 461.50000000000006 0.30193447827214259 13.500000000000002 11.500000000000002 3.5000000000000004 63.875000000000007 0.098500000000000018 21.500000000000004 77.750000000000014 0.2148176161295812 66.250000000000014 7.5000000000000009 35.500000000000007 220.50000000000003 73.180555555555571 45.500000000000007 33.500000000000007 6.5772673751519237
decision_type=2 2 2 2 2 2 2 2 2 2 2 2 2 2 2 2 2 2 2 2 2 2 2 2 2 2 2 2 2 2
left_child=1 3 5 10 11 13 18 23 20 12 -1 -3 -8 -2 17 -6 -13 -10 25 -14 -5 -22 -18 -7 -19 -4 -9 -12 -11 -21
right_child=2 4 6 8 15 7 9 26 14 28 27 16 19 -15 -16 -17 22 24 -20 29 21 -23 -24 -25 -26 -27 -28 -29 -30 -31
leaf_value=-0.010336817926482151 -0.0043858754518441853 -0.0047719113611512714 0.0033551615508539334 -0.0064262230926519868 -0.0015467466570829092 -0.0014497225295479704 0.0020489496723390542 0.0022346629477139062 -0.0050740666350103771 0.0052673157468438149 -0.0057868300496585791 -0.0031871518404468107 0.0031023450985550884 -0.00054583347269466945 -0.00018278298030296962 0.0013853138679313281 -0.0034909132628568578 0.00013252687081694603 -0.00029142069427863412 0.0058052533010502791 -0.0062134773574951223 -0.0032269683002959936 -0.00073761419308456509 0.00091086725598271885 -0.0039164686300184413 0.00055662164221639224 0.0049155595898628234 -0.0088325387381371998 0.0074917517206631598 0.0038079826533794405
leaf_weight=38 32 45 140 77 38 41 52 141 53 50 63 76 50 70 30 126 28 20 23 143 41 64 176 158 23 23 25 21 64 46
leaf_count=38 32 45 140 77 38 41 52 141 53 50 63 76 50 70 30 126 28 20 23 143 41 64 176 158 23 23 25 21 64 46
internal_value=0 -0.00307893 0.00267442 -0.00525765 -0.00116309 0.000736399 0.00420582 0.00143138 -0.00427901 0.00496252 -0.0077283 -0.00210623 0.00435389 -0.00175055 -0.00287172 0.000705934 -0.00167782 -0.00371202 0.00255818 0.00485538 -0.00525328 -0.00439313 -0.00111552 0.000424515 -0.00203321 0.00296028 0.00263841 -0.00654826 0.00651612 0.00531915
internal_weight=0 919 1058 430 489 467 591 365 308 405 122 325 291 102 126 164 280 96 186 239 182 105 204 199 43 163 166 84 114 189
internal_count=1977 919 1058 430 489 467 591 365 308 405 122 325 291 102 126 164 280 96 186 239 182 105 204 199 43 163 166 84 114 189
is_linear=0
shrinkage=0.005


Tree=6
num_leaves=31
num_cat=0
split_feature=31 69 36 23 36 35 38 37 40 40 60 34 47 69 82 23 36 36 30 39 23 59 8 23 53 6 64 23 68 32
split_gain=644.679 151.908 124.348 41.1726 34.1355 31.9643 29.1793 17.5667 16.7232 15.1654 14.8716 14.6981 13.3206 12.8241 11.3397 9.93945 9.45658 8.69029 8.43973 7.89811 7.69472 7.31352 8.89602 7.18348 6.12685 6.0439 5.80478 5.50036 5.49809 5.41362
threshold=63.500000000000007 0.27377349462165174 31.500000000000004 2.5000000000000004 23.500000000000004 27.500000000000004 16.500000000000004 16.500000000000004 5.5000000000000009 17.500000000000004 24.500000000000004 20.500000000000004 461.50000000000006 0.30193447827214259 2.576652988580348 11.500000000000002 9.5000000000000018 22.500000000000004 0.098500000000000018 5.5000000000000009 21.500000000000004 48.500000000000007 100.50000000000001 7.5000000000000009 220.50000000000003 73.180555555555571 3.3489130434782615 33.500000000000007 6.5772673751519237 46.500000000000007
decision_type=2 2 2 2 2 2 2 2 2 2 2 2 2 2 2 2 2 2 2 2 2 2 2 2 2 2 10 2 2 2
left_child=1 3 5 10 11 13 18 23 21 12 -1 -3 -8 -2 17 -6 -13 -10 24 -18 -14 -5 -23 -7 -4 -9 -12 -11 -22 -24
right_child=2 4 6 8 15 7 9 25 14 27 26 16 20 -15 -16 -17 19 -19 -20 -21 28 22 29 -25 -26 -27 -28 -29 -30 -31
leaf_value=-0.010285133735129707 -0.0043639460951089863 -0.0047480517625808714 0.0033383857708956517 -0.003663313647486129 -0.0015390129465805858 -0.0014424739378254589 0.0020387049936331238 0.0022234896459478013 -0.0027306582412698812 0.0052409791499376307 -0.0073955428497544653 -0.0048161382194269785 0.0030868334323167802 -0.00054310428670474467 -0.0048020581948630351 0.0013783873310164799 -0.002236145884350494 0.00096891712735999713 -0.00028996366521586543 -0.00048459783741613716 0.0057762270311375596 -0.0075199164152145387 -0.0059922520325265153 0.00090631288818166216 0.00055383850051009145 0.0048909817695617676 -0.0045523796746364011 0.0074542928056325767 0.003788942691424619 -0.0033573342348848074
leaf_weight=38 32 45 140 53 38 41 52 141 57 50 58 22 50 70 47 126 135 22 23 123 143 50 44 158 23 25 26 64 46 35
leaf_count=38 32 45 140 53 38 41 52 141 57 50 58 22 50 70 47 126 135 22 23 123 143 50 44 158 23 25 26 64 46 35
internal_value=0 -0.00306354 0.00266105 -0.00523136 -0.00115728 0.000732717 0.00418479 0.00142423 -0.00425761 0.0049377 -0.00768966 -0.0020957 0.00433212 -0.0017418 -0.00285737 0.000702404 -0.00166943 -0.0017004 0.00254539 -0.00140111 0.0048311 -0.00522702 -0.00586947 0.000422392 0.00294547 0.00262522 -0.00651552 0.00648354 0.00529255 -0.00482488
internal_weight=0 919 1058 430 489 467 591 365 308 405 122 325 291 102 126 164 280 79 186 258 239 182 129 199 163 166 84 114 189 79
internal_count=1977 919 1058 430 489 467 591 365 308 405 122 325 291 102 126 164 280 79 186 258 239 182 129 199 163 166 84 114 189 79
is_linear=0
shrinkage=0.005


Tree=7
num_leaves=31
num_cat=0
split_feature=31 69 36 23 36 35 38 37 40 40 60 34 47 69 82 23 36 36 30 39 23 74 69 23 53 6 79 23 68 29
split_gain=638.248 150.393 123.108 40.7619 33.795 31.6454 28.8883 17.3914 16.5564 15.0142 14.7233 14.5514 13.1877 12.6962 11.2266 9.8403 9.36225 8.6036 8.35554 7.81933 7.61797 7.26034 8.78809 7.11183 6.06574 5.98361 5.7703 5.44549 5.44325 4.78067
threshold=63.500000000000007 0.27377349462165174 31.500000000000004 2.5000000000000004 23.500000000000004 27.500000000000004 16.500000000000004 16.500000000000004 5.5000000000000009 17.500000000000004 24.500000000000004 20.500000000000004 461.50000000000006 0.30193447827214259 2.576652988580348 11.500000000000002 9.5000000000000018 22.500000000000004 0.098500000000000018 5.5000000000000009 21.500000000000004 77.750000000000014 0.2148176161295812 7.5000000000000009 220.50000000000003 73.180555555555571 45.500000000000007 33.500000000000007 6.5772673751519237 26.323500000000003
decision_type=2 2 2 2 2 2 2 2 2 2 2 2 2 2 2 2 2 2 2 2 2 2 2 2 2 2 2 2 2 2
left_child=1 3 5 10 11 13 18 23 21 12 -1 -3 -8 -2 17 -6 -13 -10 24 -18 -14 -5 -23 -7 -4 -9 -12 -11 -22 -29
right_child=2 4 6 8 15 7 9 25 14 27 26 16 20 -15 -16 -17 19 -19 -20 -21 28 22 -24 -25 -26 -27 -28 29 -30 -31
leaf_value=-0.010233708039710396 -0.0043421263177879157 -0.0047243115388684804 0.0033216937785702093 -0.0063670534001929423 -0.0015313178614566202 -0.0014352615850000848 0.0020285114703270106 0.0022123721876042956 -0.0027170049830486896 0.0052147743016481398 -0.0057263339062531794 -0.0047920574518767276 0.0030713992118835448 -0.00054038876933710915 -0.0047780478507914439 0.001371495361839022 -0.0022249651783042483 0.00096407250924543907 -0.00028851380166800125 -0.00048217483288873501 0.0057473460569248333 -0.0061529510213834482 -0.0031879147165454927 0.00090178131679945358 0.00055106937237407857 0.0048665267586708071 -0.0087527519890240255 0.0084060552929128927 0.0037699979624670481 0.0055288658020171254
leaf_weight=38 32 45 140 77 38 41 52 141 57 50 63 22 50 70 47 126 135 22 23 123 143 41 64 158 23 25 21 42 46 22
leaf_count=38 32 45 140 77 38 41 52 141 57 50 63 22 50 70 47 126 135 22 23 123 143 41 64 158 23 25 21 42 46 22
internal_value=0 -0.00304822 0.00264775 -0.0052052 -0.00115149 0.000729054 0.00416387 0.00141711 -0.00423633 0.00491301 -0.00765121 -0.00208522 0.00431046 -0.00173309 -0.00284308 0.000698892 -0.00166108 -0.00169189 0.00253267 -0.0013941 0.00480695 -0.00520088 -0.00434569 0.00042028 0.00293075 0.00261209 -0.00648294 0.00645112 0.00526609 0.00741702
internal_weight=0 919 1058 430 489 467 591 365 308 405 122 325 291 102 126 164 280 79 186 258 239 182 105 199 163 166 84 114 189 64
internal_count=1977 919 1058 430 489 467 591 365 308 405 122 325 291 102 126 164 280 79 186 258 239 182 105 199 163 166 84 114 189 64
is_linear=0
shrinkage=0.005


Tree=8
num_leaves=31
num_cat=0
split_feature=31 69 36 23 36 35 38 37 40 40 60 34 47 69 23 23 39 76 30 23 74 59 8 23 79 53 6 64 23 68
split_gain=631.881 148.893 121.88 40.3553 33.4579 31.3298 28.6001 17.218 16.3913 14.8644 14.5764 14.4063 13.0561 12.5695 11.1776 9.74215 9.27659 8.65605 8.2722 7.54198 7.23504 7.21576 8.80473 7.04089 6.9307 6.00523 5.92393 5.73147 5.39117 5.38895
threshold=63.500000000000007 0.27377349462165174 31.500000000000004 2.5000000000000004 23.500000000000004 27.500000000000004 16.500000000000004 16.500000000000004 5.5000000000000009 17.500000000000004 24.500000000000004 20.500000000000004 461.50000000000006 0.30193447827214259 13.500000000000002 11.500000000000002 3.5000000000000004 63.875000000000007 0.098500000000000018 21.500000000000004 66.250000000000014 48.500000000000007 100.50000000000001 7.5000000000000009 35.500000000000007 220.50000000000003 73.180555555555571 3.3489130434782615 33.500000000000007 6.5772673751519237
decision_type=2 2 2 2 2 2 2 2 2 2 2 2 2 2 2 2 2 2 2 2 2 2 2 2 2 2 2 10 2 2
left_child=1 3 5 10 11 13 18 23 21 12 -1 -3 -8 -2 17 -6 -13 -10 25 -14 -18 -5 -23 -7 -19 -4 -9 -12 -11 -21
right_child=2 4 6 8 15 7 9 26 14 28 27 16 19 -15 -16 -17 20 24 -20 29 -22 22 -24 -25 -26 -27 -28 -29 -30 -31
leaf_value=-0.010182539648131322 -0.0043204156681895256 -0.0047006900707880659 0.003305085391870567 -0.0036216605117298521 -0.0015236612370139674 -0.0014280852711782222 0.0020183688617096498 0.0022013104226149566 -0.0050137172301985182 0.0051887004613876339 -0.0073249762942051069 -0.0031438312169752626 0.0030560422807931896 -0.00053768682054110934 -0.00016486568003892899 0.0013646378646057749 -0.003458050774144275 0.00015814157202839851 -0.00028707125912541927 0.0057186093655499553 -0.00072170996742153715 -0.0074549785286188129 -0.0047738090100922165 0.00089727239754003817 -0.0038663762969815213 0.00054831396950327837 0.0048421941846609117 -0.0044998219838509193 0.0073799362650606784 0.0037511479660220773
leaf_weight=38 32 45 140 53 38 41 52 141 53 50 58 76 50 70 30 126 28 20 23 143 176 50 79 158 23 23 25 26 64 46
leaf_count=38 32 45 140 53 38 41 52 141 53 50 58 76 50 70 30 126 28 20 23 143 176 50 79 158 23 23 25 26 64 46
internal_value=0 -0.00303298 0.00263451 -0.00517917 -0.00114573 0.000725409 0.00414305 0.00141002 -0.00421514 0.00488845 -0.00761295 -0.0020748 0.0042889 -0.00172443 -0.00282886 0.000695398 -0.00165278 -0.00366136 0.00252 0.00478291 -0.00109729 -0.00517488 -0.00581302 0.000418179 -0.00199451 0.00291609 0.00259903 -0.00645052 0.00641887 0.00523976
internal_weight=0 919 1058 430 489 467 591 365 308 405 122 325 291 102 126 164 280 96 186 239 204 182 129 199 43 163 166 84 114 189
internal_count=1977 919 1058 430 489 467 591 365 308 405 122 325 291 102 126 164 280 96 186 239 204 182 129 199 43 163 166 84 114 189
is_linear=0
shrinkage=0.005


Tree=9
num_leaves=31
num_cat=0
split_feature=31 69 36 23 36 35 38 37 40 40 60 34 47 69 82 23 36 36 30 39 23 74 69 23 53 6 79 23 68 29
split_gain=625.578 147.408 120.664 39.9527 33.1241 31.0173 28.3148 17.0462 16.2278 14.7161 14.431 14.2626 12.9259 12.4441 11.0699 9.64497 9.24005 8.48913 8.18968 7.69559 7.46675 7.18816 8.67301 6.97065 5.94533 5.86484 5.69744 5.3374 5.3352 4.73298
threshold=63.500000000000007 0.27377349462165174 31.500000000000004 2.5000000000000004 23.500000000000004 27.500000000000004 16.500000000000004 16.500000000000004 5.5000000000000009 17.500000000000004 24.500000000000004 20.500000000000004 461.50000000000006 0.30193447827214259 2.576652988580348 11.500000000000002 9.5000000000000018 22.500000000000004 0.098500000000000018 5.5000000000000009 21.500000000000004 77.750000000000014 0.2148176161295812 7.5000000000000009 220.50000000000003 73.180555555555571 45.500000000000007 33.500000000000007 6.5772673751519237 26.323500000000003
decision_type=2 2 2 2 2 2 2 2 2 2 2 2 2 2 2 2 2 2 2 2 2 2 2 2 2 2 2 2 2 2
left_child=1 3 5 10 11 13 18 23 21 12 -1 -3 -8 -2 17 -6 -13 -10 24 -18 -14 -5 -23 -7 -4 -9 -12 -11 -22 -29
right_child=2 4 6 8 15 7 9 25 14 27 26 16 20 -15 -16 -17 19 -19 -20 -21 28 22 -24 -25 -26 -27 -28 29 -30 -31
leaf_value=-0.010131626756567704 -0.0042988135106861594 -0.0046771865652667152 0.0032885599083134105 -0.0063093632962796598 -0.001516042947769165 -0.001420944811003964 0.0020082770402614887 0.0021903038405357523 -0.0026898649308765145 0.0051627569451928139 -0.0056664584884567873 -0.0047549876062707467 0.0030407620415091514 -0.00053499836793967663 -0.0047361366276411302 0.0013578146690177539 -0.0022035434201911645 0.00096664118157191719 -0.00028563590801280482 -0.00047459812304837917 0.0056900162411319625 -0.006093461217313279 -0.0031479033944197001 0.0008927860403362709 0.00054557243119115421 0.0048179833173751831 -0.0086737089781534112 0.0083271252541314983 0.003732392217801965 0.0054643218422477892
leaf_weight=38 32 45 140 77 38 41 52 141 57 50 63 22 50 70 47 126 135 22 23 123 143 41 64 158 23 25 21 42 46 22
leaf_count=38 32 45 140 77 38 41 52 141 57 50 63 22 50 70 47 126 135 22 23 123 143 41 64 158 23 25 21 42 46 22
internal_value=0 -0.00301781 0.00262133 -0.00515328 -0.00114 0.000721782 0.00412234 0.00140297 -0.00419407 0.00486401 -0.00757489 -0.00206442 0.00426746 -0.0017158 -0.00281472 0.000691921 -0.00164451 -0.0016716 0.0025074 -0.00137928 0.004759 -0.005149 -0.00429807 0.000416088 0.00290151 0.00258604 -0.00641827 0.00638677 0.00521356 0.00734304
internal_weight=0 919 1058 430 489 467 591 365 308 405 122 325 291 102 126 164 280 79 186 258 239 182 105 199 163 166 84 114 189 64
internal_count=1977 919 1058 430 489 467 591 365 308 405 122 325 291 102 126 164 280 79 186 258 239 182 105 199 163 166 84 114 189 64
is_linear=0
shrinkage=0.005


Tree=10
num_leaves=31
num_cat=0
split_feature=31 69 36 23 36 35 38 37 40 40 60 34 47 69 23 23 36 76 30 39 23 18 23 79 74 53 6 64 23 68
split_gain=619.338 145.937 119.46 39.5542 32.7937 30.7079 28.0324 16.8762 16.0659 14.5693 14.287 14.1203 12.797 12.32 11.0186 9.54876 9.14788 8.55152 8.10799 7.61882 7.39227 7.16248 6.90112 6.85438 6.57966 5.88602 5.80633 5.6591 5.28416 5.28198
threshold=63.500000000000007 0.27377349462165174 31.500000000000004 2.5000000000000004 23.500000000000004 27.500000000000004 16.500000000000004 16.500000000000004 5.5000000000000009 17.500000000000004 24.500000000000004 20.500000000000004 461.50000000000006 0.30193447827214259 13.500000000000002 11.500000000000002 9.5000000000000018 63.875000000000007 0.098500000000000018 5.5000000000000009 21.500000000000004 15.500000000000002 7.5000000000000009 35.500000000000007 81.750000000000014 220.50000000000003 73.180555555555571 3.3489130434782615 33.500000000000007 6.5772673751519237
decision_type=2 2 2 2 2 2 2 2 2 2 2 2 2 2 2 2 2 2 2 2 2 2 2 2 2 2 2 10 2 2
left_child=1 3 5 10 11 13 18 22 21 12 -1 -3 -8 -2 17 -6 -13 -10 25 -18 -14 -5 -7 -19 -23 -4 -9 -12 -11 -22
right_child=2 4 6 8 15 7 9 26 14 28 27 16 20 -15 -16 -17 19 23 -20 -21 29 24 -24 -25 -26 -27 -28 -29 -30 -31
leaf_value=-0.010080968753287668 -0.0042773195239715275 -0.0046538006828890904 0.0032721171262008802 -0.0066503822527549886 -0.0015084627427552877 -0.0014138400936272086 0.001998235620558262 0.0021793522215481347 -0.0049713667988214852 0.0051369431510567666 -0.0072550934244846477 -0.0047312127019871362 0.0030255582347512243 -0.00053232341366154807 -0.00015566301594177883 0.0013510256248807152 -0.0021925257168434287 0.00017032213881611823 -0.00028420769002126612 -0.00047222514402091021 0.0056615661011709196 -0.0056126216310076419 0.00088832209947742997 -0.0038319762407437613 -0.0033453857200220227 0.00054284460194732836 0.0047938933879137042 -0.0044478341020070594 0.0073063215042930094 0.0037137303776715114
leaf_weight=38 32 45 140 54 38 41 52 141 53 50 58 22 50 70 30 126 135 20 23 123 143 64 158 23 64 23 25 26 64 46
leaf_count=38 32 45 140 54 38 41 52 141 53 50 58 22 50 70 30 126 135 20 23 123 143 64 158 23 64 23 25 26 64 46
internal_value=0 -0.00300273 0.00260823 -0.00512751 -0.0011343 0.000718173 0.00410172 0.00139595 -0.0041731 0.00483969 -0.00753702 -0.0020541 0.00424612 -0.00170722 -0.00280065 0.000688461 -0.00163629 -0.0036272 0.00249487 -0.00137238 0.0047352 -0.00512326 0.000414007 -0.00197044 -0.004479 0.00288701 0.00257311 -0.00638618 0.00635484 0.00518749
internal_weight=0 919 1058 430 489 467 591 365 308 405 122 325 291 102 126 164 280 96 186 258 239 182 199 43 128 163 166 84 114 189
internal_count=1977 919 1058 430 489 467 591 365 308 405 122 325 291 102 126 164 280 96 186 258 239 182 199 43 128 163 166 84 114 189
is_linear=0
shrinkage=0.005


Tree=11
num_leaves=31
num_cat=0
split_feature=31 69 36 23 36 35 38 37 40 40 60 34 47 69 82 23 36 36 30 39 23 59 8 23 53 40 79 32 23 68
split_gain=613.16 144.481 118.269 39.1596 32.4666 30.4016 27.7528 16.7078 15.9056 14.424 14.1445 13.9795 12.6693 12.1971 10.9154 9.45351 9.05663 8.37617 8.02711 7.54282 7.31853 7.09977 8.70002 6.83228 5.82731 5.74995 5.6255 5.29889 5.23145 5.22929
threshold=63.500000000000007 0.27377349462165174 31.500000000000004 2.5000000000000004 23.500000000000004 27.500000000000004 16.500000000000004 16.500000000000004 5.5000000000000009 17.500000000000004 24.500000000000004 20.500000000000004 461.50000000000006 0.30193447827214259 2.576652988580348 11.500000000000002 9.5000000000000018 22.500000000000004 0.098500000000000018 5.5000000000000009 21.500000000000004 48.500000000000007 100.50000000000001 7.5000000000000009 220.50000000000003 3.5000000000000004 45.500000000000007 46.500000000000007 33.500000000000007 6.5772673751519237
decision_type=2 2 2 2 2 2 2 2 2 2 2 2 2 2 2 2 2 2 2 2 2 2 2 2 2 2 2 2 2 2
left_child=1 3 5 10 11 13 18 23 21 12 -1 -3 -8 -2 17 -6 -13 -10 24 -18 -14 -5 -23 -7 -4 -9 -12 -24 -11 -22
right_child=2 4 6 8 15 7 9 25 14 28 26 16 20 -15 -16 -17 19 -19 -20 -21 29 22 27 -25 -26 -27 -28 -29 -30 -31
leaf_value=-0.010030563520757776 -0.0042559329536743466 -0.0046305316256152257 0.0032557565814682415 -0.0035569591778066923 -0.0015009204729607231 -0.0014067708610034572 0.0019882444908412601 0.0010795248569326198 -0.002662996675884515 0.0051112583860754967 -0.0056071980676007651 -0.0047075566141442822 0.0030104304298758508 -0.00052966179805142535 -0.0046946028112731086 0.0013442705382430366 -0.0021815630672154603 0.00096910041841593664 -0.00028278665698092917 -0.000469864036251859 0.0056332583235693982 -0.007362800580263138 -0.0058525538122789419 0.0008838805103603798 0.00054013032628142321 0.0031450644110431192 -0.0085954015737488149 -0.0032457058834178109 0.0072697898419573906 0.0036951617119104969
leaf_weight=38 32 45 140 53 38 41 52 47 57 50 63 22 50 70 47 126 135 22 23 123 143 50 44 158 23 119 21 35 64 46
leaf_count=38 32 45 140 53 38 41 52 47 57 50 63 22 50 70 47 126 135 22 23 123 143 50 44 158 23 119 21 35 64 46
internal_value=0 -0.00298771 0.00259519 -0.00510187 -0.00112863 0.000714582 0.00408121 0.00138897 -0.00415223 0.00481549 -0.00749933 -0.00204383 0.00422489 -0.00169869 -0.00278664 0.000685019 -0.00162811 -0.00165153 0.00248239 -0.00136552 0.00471153 -0.00509764 -0.00573064 0.000411937 0.00287257 0.00256024 -0.00635425 -0.00469762 0.00632307 0.00516155
internal_weight=0 919 1058 430 489 467 591 365 308 405 122 325 291 102 126 164 280 79 186 258 239 182 129 199 163 166 84 79 114 189
internal_count=1977 919 1058 430 489 467 591 365 308 405 122 325 291 102 126 164 280 79 186 258 239 182 129 199 163 166 84 79 114 189
is_linear=0
shrinkage=0.005


Tree=12
num_leaves=31
num_cat=0
split_feature=31 69 36 23 36 35 38 37 40 40 60 23 69 23 23 59 47 30 76 15 18 74 36 79 23 39 39 6 17 64
split_gain=607.044 143.04 117.089 38.769 32.1428 30.0983 27.4787 16.5412 15.747 14.8702 14.0034 13.8888 12.0754 10.8618 9.35921 9.06369 8.96549 8.54158 8.44827 7.68249 7.06846 7.08414 6.87169 6.77891 6.76413 6.66876 6.54751 5.7504 5.65073 5.58763
threshold=63.500000000000007 0.27377349462165174 31.500000000000004 2.5000000000000004 23.500000000000004 27.500000000000004 17.500000000000004 16.500000000000004 5.5000000000000009 4.5000000000000009 24.500000000000004 2.5000000000000004 0.30193447827214259 13.500000000000002 11.500000000000002 68.500000000000014 441.75000000000006 0.098500000000000018 63.875000000000007 2.4072193586221799 4.5000000000000009 80.750000000000014 11.500000000000002 35.500000000000007 7.5000000000000009 5.5000000000000009 15.500000000000002 73.180555555555571 6.5000000000000009 3.3489130434782615
decision_type=2 2 2 2 2 2 2 2 2 2 2 2 2 2 2 2 2 2 2 2 2 2 2 2 2 2 2 2 2 10
left_child=1 3 5 10 11 12 17 24 20 -8 -1 -3 -2 18 -6 22 -11 26 -10 28 -5 -22 -13 -20 -7 -24 -4 -9 -18 -12
right_child=2 4 6 8 14 7 9 27 13 16 29 15 -14 -15 -16 -17 19 -19 23 -21 21 -23 25 -25 -26 -27 -28 -29 -30 -31
leaf_value=-0.0099804109648654344 -0.0042346533015370372 -0.0053358377413503053 0.0025551690568069098 -0.0072901353662212691 -0.0014934157933059493 -0.0013997370386269034 0.0023278903829700806 0.0021555868499245202 -0.0049293907788002271 0.0029036393157533696 -0.0071858875813155341 -0.0034914950136509205 -0.0005270134615046637 -0.00014660740643739702 0.0013375491069422829 -0.0047244338464477792 0.003911366788122584 -0.0001618194729089737 0.00018230858072638511 0.0072198851241005793 -0.0057426077077114904 -0.003583013539512952 -0.0019681653749844259 -0.0037978952054096306 0.0008794610801188252 -0.0002903460595628311 0.0052271354032887357 0.0047575034946203236 0.0056071256147434481 -0.0043964094840563258
leaf_weight=38 32 29 152 30 38 41 51 141 53 37 58 36 70 30 126 23 68 25 20 54 74 78 121 23 158 116 27 25 177 26
leaf_count=38 32 29 152 30 38 41 51 141 53 37 58 36 70 30 126 23 68 25 20 54 74 78 121 23 158 116 27 25 177 26
internal_value=0 -0.00297277 0.00258221 -0.00507637 -0.00112299 0.000711009 0.00406081 0.00138203 -0.00413147 0.00484358 -0.00746183 -0.00203361 -0.00169019 -0.00277271 0.000681594 -0.00171008 0.00522542 0.00257585 -0.00359337 0.00551274 -0.00507215 -0.00463439 -0.00145612 -0.00194664 0.000409878 -0.00114695 0.0029582 0.00254744 0.00513647 -0.00632248
internal_weight=0 919 1058 430 489 467 591 365 308 387 122 325 102 126 164 296 336 204 96 299 182 152 273 43 199 237 179 166 245 84
internal_count=1977 919 1058 430 489 467 591 365 308 387 122 325 102 126 164 296 336 204 96 299 182 152 273 43 199 237 179 166 245 84
is_linear=0
shrinkage=0.005


Tree=13
num_leaves=31
num_cat=0
split_feature=31 69 36 23 36 35 38 37 40 40 60 34 47 69 82 23 39 36 30 23 74 59 8 23 53 40 79 32 68 23
split_gain=600.989 141.613 115.921 38.3823 31.8221 29.7981 27.2155 16.3762 15.5899 14.2127 13.8638 13.7924 12.4502 11.955 10.763 9.26585 8.92012 8.2647 7.86892 7.21324 7.10883 7.01915 8.59602 6.69666 5.77136 5.69456 5.55446 5.2318 5.16409 5.16072
threshold=63.500000000000007 0.27377349462165174 31.500000000000004 2.5000000000000004 23.500000000000004 27.500000000000004 16.500000000000004 16.500000000000004 5.5000000000000009 17.500000000000004 24.500000000000004 20.500000000000004 461.50000000000006 0.30193447827214259 2.576652988580348 11.500000000000002 3.5000000000000004 22.500000000000004 0.098500000000000018 21.500000000000004 66.250000000000014 48.500000000000007 100.50000000000001 7.5000000000000009 220.50000000000003 3.5000000000000004 45.500000000000007 46.500000000000007 6.5772673751519237 33.500000000000007
decision_type=2 2 2 2 2 2 2 2 2 2 2 2 2 2 2 2 2 2 2 2 2 2 2 2 2 2 2 2 2 2
left_child=1 3 5 10 11 13 18 23 21 12 -1 -3 -8 -2 17 -6 -13 -10 24 -14 -18 -5 -23 -7 -4 -9 -12 -24 -21 -11
right_child=2 4 6 8 15 7 9 25 14 29 26 16 19 -15 -16 -17 20 -19 -20 28 -22 22 27 -25 -26 -27 -28 -29 -30 -31
leaf_value=-0.0099305087641665818 -0.0042134799133054911 -0.0045927765054835212 0.0032248887361160344 -0.0035148825440204368 -0.0014859487508472643 -0.0013927383684530492 0.0019641644994799908 0.0010611348773570772 -0.0026363974809646609 0.0050605413839221007 -0.0055485457844204377 -0.0030726382891206367 0.0029749746933579449 -0.00052437844233853476 -0.0046534431139205364 0.0013308613735532005 -0.0034058828598686627 0.00097145163538781085 -0.00028056362400884211 0.005579322457209334 -0.00069351388734172699 -0.0072985623702406886 -0.0057969586398791189 0.00087506379130520401 0.00052233044220053638 0.0031167025839080333 -0.0085178235173225397 -0.0032066673721585955 0.0036533473399670232 0.0072044328250922265
leaf_weight=38 32 45 140 53 38 41 52 47 57 50 63 76 50 70 47 126 28 22 23 143 176 50 44 158 23 119 21 35 46 64
leaf_count=38 32 45 140 53 38 41 52 47 57 50 63 76 50 70 47 126 28 22 23 143 176 50 44 158 23 119 21 35 46 64
internal_value=0 -0.00295791 0.0025693 -0.00505098 -0.00111737 0.000707454 0.0040405 0.00137512 -0.00411081 0.00476764 -0.00742452 -0.00202344 0.00418138 -0.00168174 -0.00275885 0.000678186 -0.00161051 -0.00163168 0.00245723 0.00466379 -0.0010658 -0.00504679 -0.00567618 0.000407828 0.00284355 0.0025347 -0.00629087 -0.00464936 0.00511057 0.00626413
internal_weight=0 919 1058 430 489 467 591 365 308 405 122 325 291 102 126 164 280 79 186 239 204 182 129 199 163 166 84 79 189 114
internal_count=1977 919 1058 430 489 467 591 365 308 405 122 325 291 102 126 164 280 79 186 239 204 182 129 199 163 166 84 79 189 114
is_linear=0
shrinkage=0.005


Tree=14
num_leaves=31
num_cat=0
split_feature=31 69 36 23 36 35 38 37 40 40 60 23 69 23 23 59 47 30 76 15 74 69 36 79 23 39 39 6 17 64
split_gain=594.994 140.201 114.765 37.9994 31.5047 29.5008 26.9469 16.2128 15.4344 14.6583 13.7255 13.698 11.8357 10.7073 9.17343 8.9549 8.78775 8.37605 8.34628 7.56667 6.99661 8.44468 6.7701 6.70428 6.62986 6.56151 6.47777 5.695 5.57253 5.51707
threshold=63.500000000000007 0.27377349462165174 31.500000000000004 2.5000000000000004 23.500000000000004 27.500000000000004 17.500000000000004 16.500000000000004 5.5000000000000009 4.5000000000000009 24.500000000000004 2.5000000000000004 0.30193447827214259 13.500000000000002 11.500000000000002 68.500000000000014 441.75000000000006 0.098500000000000018 63.875000000000007 2.4072193586221799 77.750000000000014 0.2148176161295812 11.500000000000002 35.500000000000007 7.5000000000000009 5.5000000000000009 15.500000000000002 73.180555555555571 6.5000000000000009 3.3489130434782615
decision_type=2 2 2 2 2 2 2 2 2 2 2 2 2 2 2 2 2 2 2 2 2 2 2 2 2 2 2 2 2 10
left_child=1 3 5 10 11 12 17 24 20 -8 -1 -3 -2 18 -6 22 -11 26 -10 28 -5 -22 -13 -20 -7 -24 -4 -9 -18 -12
right_child=2 4 6 8 14 7 9 27 13 16 29 15 -14 -15 -16 -17 19 -19 23 -21 21 -23 25 -25 -26 -27 -28 -29 -30 -31
leaf_value=-0.0098808559147935161 -0.0041924125887453558 -0.005292789920650679 0.0025275311829816354 -0.0061663538120783771 -0.0014785190397187285 -0.0013857746505882681 0.0022977591291362164 0.0021320681865756395 -0.0048877855305964092 0.0028759205482296042 -0.0071173518947486225 -0.0034598666512303884 -0.0005217565298080444 -0.00013769693921009702 0.0013242071110104758 -0.0046882335323354474 0.0038690093871863451 -0.00016122851073741912 0.000194103367626667 0.0071532578090274784 -0.0059536416456103325 -0.0030471139831934127 -0.0019473022616599217 -0.003764130249619484 0.00087068846850078319 -0.00028302992597736165 0.0051852293478118049 0.0047214212298393246 0.0055529942569759608 -0.0043455426968061006
leaf_weight=38 32 29 152 77 38 41 51 141 53 37 58 36 70 30 126 23 68 25 20 54 41 64 121 23 158 116 27 25 177 26
leaf_count=38 32 29 152 77 38 41 51 141 53 37 58 36 70 30 126 23 68 25 20 54 41 64 121 23 158 116 27 25 177 26
internal_value=0 -0.00294312 0.00255645 -0.00502573 -0.00111179 0.000703916 0.0040203 0.00136824 -0.00409026 0.00479546 -0.0073874 -0.00201332 -0.00167333 -0.00274505 0.000674795 -0.00169203 0.00517458 0.00254978 -0.00355985 0.00545903 -0.00502156 -0.00418204 -0.0014396 -0.00192309 0.000405789 -0.00113272 0.00292841 0.00252203 0.0050856 -0.00625941
internal_weight=0 919 1058 430 489 467 591 365 308 387 122 325 102 126 164 296 336 204 96 299 182 105 273 43 199 237 179 166 245 84
internal_count=1977 919 1058 430 489 467 591 365 308 387 122 325 102 126 164 296 336 204 96 299 182 105 273 43 199 237 179 166 245 84
is_linear=0
shrinkage=0.005


Tree=15
num_leaves=31
num_cat=0
split_feature=31 69 36 23 36 35 38 37 40 40 34 60 47 69 82 23 36 34 57 48 39 23 18 74 23 40 79 36 68 29
split_gain=589.059 138.802 113.62 37.6204 31.1905 29.2066 26.6887 16.0511 15.2804 14.0045 13.6078 13.5885 12.2349 11.7177 10.6128 9.08192 8.81317 8.17449 7.73562 7.7242 7.27924 7.10946 6.9612 6.92764 6.56373 5.63971 5.48433 5.22976 5.0997 5.09861
threshold=63.500000000000007 0.27377349462165174 31.500000000000004 2.5000000000000004 23.500000000000004 27.500000000000004 16.500000000000004 16.500000000000004 5.5000000000000009 17.500000000000004 20.500000000000004 24.500000000000004 461.50000000000006 0.30193447827214259 2.576652988580348 11.500000000000002 9.5000000000000018 22.500000000000004 164.62500000000003 331.50000000000006 5.5000000000000009 21.500000000000004 4.5000000000000009 80.750000000000014 7.5000000000000009 3.5000000000000004 45.500000000000007 19.500000000000004 6.5772673751519237 24.339500000000005
decision_type=2 2 2 2 2 2 2 2 2 2 2 2 2 2 2 2 2 2 2 2 2 2 2 2 2 2 2 2 2 2
left_child=1 3 5 11 10 13 18 24 22 12 -3 -1 -8 -2 17 -6 -12 -10 19 -4 -18 -14 -5 -24 -7 -9 -13 -19 -23 -11
right_child=2 4 6 8 15 7 9 25 14 29 16 26 21 -15 -16 -17 20 27 -20 -21 -22 28 23 -25 -26 -27 -28 -29 -30 -31
leaf_value=-0.0098314518206997926 -0.0041714505362324414 -0.004555342773596446 0.0017584256377117134 -0.0071975399454434711 -0.001471126393267983 -0.0013788458232472584 0.0019403513879157031 0.0010429651860861069 -0.0036134209171418221 0.0071741403639316564 -0.0046308769861405545 -0.0054904960427019332 0.0029399121060967449 -0.00051914770475455698 -0.0046126537516396103 0.0013175860331172036 -0.0021357239468230141 -0.0021136841211806647 -9.7171965126807881e-05 0.0039557823472762413 -0.00045419861267252665 0.0055259094481076403 -0.005657930385220695 -0.0035223228336335754 0.0008663350305979766 0.0030886092130877393 -0.0084409673866771527 0.0011986436580236142 0.003611978974355304 0.0050511360770234695
leaf_weight=38 32 45 81 30 38 41 52 47 31 62 22 63 50 70 47 126 135 22 26 79 123 143 74 78 158 119 21 26 46 52
leaf_count=38 32 45 81 30 38 41 52 47 31 62 22 63 50 70 47 126 135 22 26 79 123 143 74 78 158 119 21 26 46 52
internal_value=0 -0.0029284 0.00254367 -0.0050006 -0.00110623 0.000700397 0.0040002 0.0013614 -0.00406981 0.00472026 -0.00200326 -0.00735047 0.00413832 -0.00166497 -0.00273133 0.000671421 -0.0015931 -0.00161206 0.00243233 0.00284337 -0.00133407 0.00461653 -0.00499645 -0.00456203 0.00040376 0.00250942 -0.00622811 -0.000319507 0.00506009 0.00620575
internal_weight=0 919 1058 430 489 467 591 365 308 405 325 122 291 102 126 164 280 79 186 160 258 239 182 152 199 166 84 48 189 114
internal_count=1977 919 1058 430 489 467 591 365 308 405 325 122 291 102 126 164 280 79 186 160 258 239 182 152 199 166 84 48 189 114
is_linear=0
shrinkage=0.005


Tree=16
num_leaves=31
num_cat=0
split_feature=31 69 36 23 36 35 38 37 40 40 17 60 69 46 23 23 36 30 76 59 8 79 23 39 39 6 64 3 32 16
split_gain=583.183 137.418 112.487 37.2451 30.8793 28.9152 26.4274 15.891 15.128 14.4498 13.5708 13.453 11.6008 11.3812 10.5392 8.99133 8.64538 8.2698 8.24228 6.91566 8.49085 6.62331 6.49825 6.40108 5.82678 5.64013 5.4474 5.16961 5.14408 5.00261
threshold=63.500000000000007 0.27377349462165174 31.500000000000004 2.5000000000000004 23.500000000000004 27.500000000000004 17.500000000000004 16.500000000000004 5.5000000000000009 4.5000000000000009 3.5000000000000004 24.500000000000004 0.30193447827214259 326.25000000000006 13.500000000000002 11.500000000000002 51.500000000000007 0.098500000000000018 63.875000000000007 48.500000000000007 100.50000000000001 35.500000000000007 7.5000000000000009 15.500000000000002 5.5000000000000009 73.180555555555571 3.3489130434782615 3.5000000000000004 46.500000000000007 -0.045633433384595933
decision_type=2 2 2 2 2 2 2 2 2 2 2 2 2 2 2 2 2 2 2 2 2 2 2 2 2 2 10 2 2 2
left_child=1 3 5 11 10 12 17 22 19 -8 -3 -1 -2 -12 18 -6 -11 23 -10 -5 -21 -20 -7 29 -15 -9 27 -13 -22 -4
right_child=2 4 6 8 15 7 9 25 14 16 13 26 -14 24 -16 -17 -18 -19 21 20 28 -23 -24 -25 -26 -27 -28 -29 -30 -31
leaf_value=-0.0097822946623752002 -0.004150593280792236 -0.0046097443911225292 0.0029420903385654696 -0.0034508933422138107 -0.0014637707409105802 -0.0013719515447936407 0.0022679754974795322 0.0021087938610543596 -0.0048456820339526771 0.0044990561781317424 -0.0033423419807638438 -0.0083487455592010963 -0.00051655194801943647 -0.0018228683039682723 -0.00013086754580338795 0.0013109981256818016 0.0061531363386572811 -0.00016983832418918608 0.00020485546812415122 -0.0072086262769997123 -0.0057136170887811619 -0.0037294039065423217 0.00086200339130208456 0.0051435629443989861 -0.00016434942923703241 0.0046856441587209705 -0.0042952277224797475 -0.005334449625015259 -0.0031451327566589626 0.00063354443887184402
leaf_weight=38 32 43 123 53 38 41 51 141 53 209 70 33 70 109 30 126 127 25 20 50 44 23 158 27 103 25 26 25 35 29
leaf_count=38 32 43 123 53 38 41 51 141 53 209 70 33 70 109 30 126 127 25 20 50 44 23 158 27 103 25 26 25 35 29
internal_value=0 -0.00291376 0.00253095 -0.0049756 -0.0011007 0.000696895 0.0039802 0.0013546 -0.00404946 0.00474785 -0.00199324 -0.00731371 -0.00165664 -0.00159427 -0.00271767 0.000668064 0.00512426 0.00252392 -0.00352605 -0.00497147 -0.0055962 -0.00189952 0.000401741 0.00290015 -0.00101708 0.00249687 -0.00619697 -0.00704948 -0.00457568 0.00250164
internal_weight=0 919 1058 430 489 467 591 365 308 387 325 122 102 282 126 164 336 204 96 182 129 43 199 179 212 166 84 58 79 152
internal_count=1977 919 1058 430 489 467 591 365 308 387 325 122 102 282 126 164 336 204 96 182 129 43 199 179 212 166 84 58 79 152
is_linear=0
shrinkage=0.005


Tree=17
num_leaves=31
num_cat=0
split_feature=31 69 36 23 36 35 38 37 40 40 23 60 47 69 82 23 59 36 57 48 23 18 36 23 39 74 40 79 23 68
split_gain=577.366 136.047 111.365 36.8736 30.5713 28.6268 26.1693 15.7325 14.9771 13.8106 13.4592 13.3188 12.0805 11.4851 10.4647 8.90164 8.84619 8.07343 7.64401 7.62394 7.02272 6.88193 6.61368 6.43343 6.36756 6.28107 5.58539 5.40734 5.07014 5.04368
threshold=63.500000000000007 0.27377349462165174 31.500000000000004 2.5000000000000004 23.500000000000004 27.500000000000004 16.500000000000004 16.500000000000004 5.5000000000000009 17.500000000000004 2.5000000000000004 24.500000000000004 461.50000000000006 0.30193447827214259 2.576652988580348 11.500000000000002 68.500000000000014 22.500000000000004 164.62500000000003 331.50000000000006 21.500000000000004 15.500000000000002 11.500000000000002 7.5000000000000009 5.5000000000000009 81.750000000000014 3.5000000000000004 45.500000000000007 33.500000000000007 6.5772673751519237
decision_type=2 2 2 2 2 2 2 2 2 2 2 2 2 2 2 2 2 2 2 2 2 2 2 2 2 2 2 2 2 2
left_child=1 3 5 11 10 13 18 23 21 12 -3 -1 -8 -2 17 -6 22 -10 19 -4 -14 -5 -12 -7 -24 -23 -9 -13 -11 -22
right_child=2 4 6 8 15 7 9 26 14 28 16 27 20 -15 -16 -17 -18 -19 -20 -21 29 25 24 -25 -26 -27 -28 -29 -30 -31
leaf_value=-0.0097333831065579465 -0.0041298402776010334 -0.0052340390533208844 0.0017384769086852487 -0.0064435286488797932 -0.0014564519179494759 -0.001365091802506912 0.0019113622333567877 0.001025013284797364 -0.0025856715479963704 0.0049555137962102895 -0.0034106920038660367 -0.0054335661894745306 0.0029042443498969077 -0.00051396920851298745 -0.0045722339286449112 0.0013044431166989463 -0.0046427548644335376 0.00098018427464095044 -0.00010672122526627322 0.0039215268996320189 0.0054747024845410068 -0.0054226979322265839 -0.0019130387249564338 0.00085769335633214508 -0.00027354716805034671 -0.0032075030833948405 0.0030607816088600321 -0.0083632554184822801 0.0070805056742392486 0.0035713128794146623
leaf_weight=38 32 29 81 54 38 41 52 47 57 50 36 63 50 70 47 126 23 22 26 79 143 64 121 158 116 64 119 21 64 46
leaf_count=38 32 29 81 54 38 41 52 47 57 50 36 63 50 70 47 126 23 22 26 79 143 64 121 158 116 64 119 21 64 46
internal_value=0 -0.00289919 0.0025183 -0.00495072 -0.00109519 0.00069341 0.0039603 0.00134782 -0.00402921 0.00467332 -0.00198328 -0.00727714 0.00409542 -0.00164836 -0.00270408 0.000664724 -0.00166479 -0.00159265 0.00240776 0.00281636 0.00457061 -0.00494661 -0.0014139 0.000399733 -0.00111059 -0.0043151 0.00248439 -0.00616599 0.00614849 0.00501144
internal_weight=0 919 1058 430 489 467 591 365 308 405 325 122 291 102 126 164 296 79 186 160 239 182 273 199 237 128 166 84 114 189
internal_count=1977 919 1058 430 489 467 591 365 308 405 325 122 291 102 126 164 296 79 186 160 239 182 273 199 237 128 166 84 114 189
is_linear=0
shrinkage=0.005


Tree=18
num_leaves=31
num_cat=0
split_feature=31 69 36 23 36 35 38 37 40 40 34 60 69 23 23 74 36 30 76 39 59 8 79 23 39 6 64 32 60 16
split_gain=571.607 134.69 110.254 36.5058 30.2664 28.3413 25.916 15.5756 14.8277 14.2439 13.388 13.186 11.3705 10.3892 8.81285 8.64939 8.51349 8.16524 8.14279 7.73374 6.82793 8.39232 6.5504 6.36926 6.32722 5.5858 5.38027 5.07728 4.96354 4.93381
threshold=63.500000000000007 0.27377349462165174 31.500000000000004 2.5000000000000004 23.500000000000004 27.500000000000004 17.500000000000004 16.500000000000004 5.5000000000000009 4.5000000000000009 20.500000000000004 24.500000000000004 0.30193447827214259 13.500000000000002 11.500000000000002 66.250000000000014 51.500000000000007 0.098500000000000018 63.875000000000007 3.5000000000000004 48.500000000000007 100.50000000000001 35.500000000000007 7.5000000000000009 15.500000000000002 73.180555555555571 3.3920358649789031 46.500000000000007 35.500000000000007 -0.045633433384595933
decision_type=2 2 2 2 2 2 2 2 2 2 2 2 2 2 2 2 2 2 2 2 2 2 2 2 2 2 10 2 2 2
left_child=1 3 5 11 10 12 17 23 20 -8 -3 -1 -2 18 -6 -12 28 24 -10 -17 -5 -22 -20 -7 29 -9 -13 -23 -11 -4
right_child=2 4 6 8 14 7 9 25 13 16 15 26 -14 -15 -16 19 -18 -19 22 -21 21 27 -24 -25 -26 -27 -28 -29 -30 -31
leaf_value=-0.009684716086638602 -0.0041091911122202876 -0.0045047491540511448 0.0029134288424156546 -0.0034109794376593716 -0.0014491697126313261 -0.0013582663183532109 0.0022385406318832846 0.0020857614299929733 -0.0048048107480665424 0.005054652921282328 -0.0036882617288246391 -0.006958872317257574 -0.00051139938405581889 -0.00012223466237386068 0.0012979208837662424 -0.0027058710843797713 0.0060953999633394833 -0.00017829702198505403 0.00021627530828118323 -0.00066442853390154516 -0.0071456778354942801 -0.0056585770168087702 -0.0036962673391984857 0.00085340484835301782 0.0051026552170515063 0.0046501692324876784 -0.0041911941885948182 -0.0031068231101546969 0.0034655437043196037 0.0006208121108597722
leaf_weight=38 32 45 123 53 38 41 51 141 53 130 41 59 70 30 126 63 127 25 20 176 50 44 23 158 27 25 25 35 79 29
leaf_count=38 32 45 123 53 38 41 51 141 53 130 41 59 70 30 126 63 127 25 20 176 50 44 23 158 27 25 25 35 79 29
internal_value=0 -0.0028847 0.00250571 -0.00492597 -0.00108972 0.000689943 0.0039405 0.00134108 -0.00400907 0.00470068 -0.00197336 -0.00724076 -0.00164012 -0.00269056 0.0006614 -0.00156653 0.0050744 0.00249838 -0.00349316 -0.00120255 -0.00492188 -0.00554264 -0.00187648 0.000397734 0.00287222 0.00247197 -0.00613516 -0.00452805 0.00445398 0.00247602
internal_weight=0 919 1058 430 489 467 591 365 308 387 325 122 102 126 164 280 336 204 96 239 182 129 43 199 179 166 84 79 209 152
internal_count=1977 919 1058 430 489 467 591 365 308 387 325 122 102 126 164 280 336 204 96 239 182 129 43 199 179 166 84 79 209 152
is_linear=0
shrinkage=0.005


Tree=19
num_leaves=31
num_cat=0
split_feature=31 69 36 23 36 35 38 37 40 40 17 60 47 69 46 82 23 34 57 48 23 74 69 23 39 40 79 36 29 68
split_gain=565.905 133.346 109.154 36.1417 29.9645 28.0585 25.66 15.4202 14.6798 13.6183 13.334 13.0544 11.9262 11.2571 11.1863 10.3186 8.72494 8.00434 7.5535 7.52498 6.93703 6.81056 8.22251 6.30573 5.67007 5.53159 5.33969 5.10687 5.02422 4.98604
threshold=63.500000000000007 0.27377349462165174 31.500000000000004 2.5000000000000004 23.500000000000004 27.500000000000004 16.500000000000004 16.500000000000004 5.5000000000000009 17.500000000000004 3.5000000000000004 24.500000000000004 461.50000000000006 0.30193447827214259 326.25000000000006 2.576652988580348 11.500000000000002 22.500000000000004 164.62500000000003 331.50000000000006 21.500000000000004 77.750000000000014 0.2148176161295812 7.5000000000000009 5.5000000000000009 3.5000000000000004 45.500000000000007 19.500000000000004 24.339500000000005 6.5772673751519237
decision_type=2 2 2 2 2 2 2 2 2 2 2 2 2 2 2 2 2 2 2 2 2 2 2 2 2 2 2 2 2 2
left_child=1 3 5 11 10 13 18 23 21 12 -3 -1 -8 -2 -12 17 -6 -10 19 -4 -14 -5 -23 -7 -16 -9 -13 -19 -11 -22
right_child=2 4 6 8 16 7 9 25 15 28 14 26 20 -15 24 -17 -18 27 -20 -21 29 22 -24 -25 -26 -27 -28 -29 -30 -31
leaf_value=-0.0096362928967726868 -0.0040886451234109699 -0.0045570637597594152 0.0017187465791716988 -0.0060267406392407108 -0.0014419238190901908 -0.0013514750014717986 0.0018829147632305437 0.0010072769636803485 -0.0035538870000070139 0.0070530036428282337 -0.0033010517731308937 -0.0053766561488783546 0.0028689594522118569 -0.00050884238949843819 -0.0017906707887529233 -0.004532177698739032 0.0012914313239947197 -0.0020674049244685608 -0.00011611242706959066 0.0038875823222760913 0.0054238687565068269 -0.0058171290022934353 -0.00294909012503922 0.00084913783624202389 -0.00015460731335056638 0.0030332170840071029 -0.0082879623486882166 0.0012057755400355047 0.004945543601822395 0.0035313868636022445
leaf_weight=38 32 43 81 77 38 41 52 47 31 62 70 63 50 70 109 47 126 22 26 79 143 41 64 158 103 119 21 26 52 46
leaf_count=38 32 43 81 77 38 41 52 47 31 62 70 63 50 70 109 47 126 22 26 79 143 41 64 158 103 119 21 26 52 46
internal_value=0 -0.00287027 0.00249318 -0.00490134 -0.00108427 0.000686494 0.00392079 0.00133438 -0.00398902 0.00462684 -0.00196349 -0.00720455 0.00405298 -0.00163192 -0.00156802 -0.00267711 0.000658093 -0.00157346 0.00238343 0.00278961 0.00452513 -0.00489727 -0.00406899 0.000395745 -0.000995791 0.00245961 -0.00610448 -0.000294432 0.00609171 0.00496326
internal_weight=0 919 1058 430 489 467 591 365 308 405 325 122 291 102 282 126 164 79 186 160 239 182 105 199 212 166 84 48 114 189
internal_count=1977 919 1058 430 489 467 591 365 308 405 325 122 291 102 282 126 164 79 186 160 239 182 105 199 212 166 84 48 114 189
is_linear=0
shrinkage=0.005


Tree=20
num_leaves=31
num_cat=0
split_feature=31 69 36 23 36 35 38 37 40 40 23 60 69 23 59 23 47 30 76 15 18 74 36 79 39 23 39 6 17 64
split_gain=560.26 132.016 108.065 35.7811 29.6656 27.7787 25.4164 15.2664 14.5334 14.0412 13.222 12.9242 11.1448 10.2259 8.72294 8.63791 8.40711 8.06168 8.04134 7.34581 6.7887 6.69738 6.48815 6.47128 6.25235 6.24283 6.20657 5.53199 5.44285 5.31298
threshold=63.500000000000007 0.27377349462165174 31.500000000000004 2.5000000000000004 23.500000000000004 27.500000000000004 17.500000000000004 16.500000000000004 5.5000000000000009 4.5000000000000009 2.5000000000000004 24.500000000000004 0.30193447827214259 13.500000000000002 68.500000000000014 11.500000000000002 441.75000000000006 0.098500000000000018 63.875000000000007 2.4072193586221799 4.5000000000000009 80.750000000000014 11.500000000000002 35.500000000000007 15.500000000000002 7.5000000000000009 5.5000000000000009 73.180555555555571 6.5000000000000009 3.3920358649789031
decision_type=2 2 2 2 2 2 2 2 2 2 2 2 2 2 2 2 2 2 2 2 2 2 2 2 2 2 2 2 2 10
left_child=1 3 5 11 10 12 17 25 20 -8 -3 -1 -2 18 22 -6 -11 24 -10 28 -5 -22 -12 -20 -4 -7 -24 -9 -18 -13
right_child=2 4 6 8 15 7 9 27 13 16 14 29 -14 -15 -16 -17 19 -19 23 -21 21 -23 26 -25 -26 -27 -28 -29 -30 -31
leaf_value=-0.0095881110900326791 -0.0040682019107043743 -0.0051756654037483805 0.0024506564404031166 -0.0070464291349053385 -0.0014347142294833535 -0.0013447176228936126 0.0022094503936229966 0.0020629683971827759 -0.0047634434193935035 0.0027767410391085858 -0.0033666231503917112 -0.0068925068918931284 -0.00050629816097872598 -0.00011565946290890377 -0.0045951542258262637 0.0012849741417264183 0.0037329965369666323 -0.00018660651147365571 0.00022666558995842933 0.006972606395957647 -0.0055213112827088382 -0.0034214957125293906 -0.0018806939227275614 -0.0036621760382600454 0.0050617016686333553 0.00084489211298619654 -0.00026206135621358609 0.0046149938225746156 0.0053972723402377579 -0.0041421904116868977
leaf_weight=38 32 29 152 30 38 41 51 141 53 37 36 59 70 30 23 126 68 25 20 54 74 78 121 23 27 158 116 25 177 25
leaf_count=38 32 29 152 30 38 41 51 141 53 37 36 59 70 30 23 126 68 25 20 54 74 78 121 23 27 158 116 25 177 25
internal_value=0 -0.00285592 0.00248071 -0.00487683 -0.00107885 0.000683061 0.00390119 0.00132771 -0.00396908 0.00465401 -0.00195367 -0.00716853 -0.00162376 -0.00266372 -0.00163801 0.000654802 0.00502506 0.00247304 -0.00345999 0.00530328 -0.00487278 -0.00444377 -0.00138887 -0.00185341 0.0028445 0.000393766 -0.00108845 0.00244731 0.00493535 -0.00607396
internal_weight=0 919 1058 430 489 467 591 365 308 387 325 122 102 126 296 164 336 204 96 299 182 152 273 43 179 199 237 166 245 84
internal_count=1977 919 1058 430 489 467 591 365 308 387 325 122 102 126 296 164 336 204 96 299 182 152 273 43 179 199 237 166 245 84
is_linear=0
shrinkage=0.005


Tree=21
num_leaves=31
num_cat=0
split_feature=31 69 36 23 36 35 38 37 40 40 34 60 47 69 82 23 36 34 57 48 39 23 59 8 23 40 79 36 32 23
split_gain=554.671 130.699 106.987 35.4242 29.3696 27.5016 25.1632 15.1141 14.3884 13.4187 13.1719 12.7953 11.7201 11.0336 10.1746 8.55174 8.50304 7.88935 7.47511 7.43062 6.89256 6.83711 6.72725 8.28967 6.18056 5.47831 5.2729 5.03915 4.99214 4.97999
threshold=63.500000000000007 0.27377349462165174 31.500000000000004 2.5000000000000004 23.500000000000004 27.500000000000004 16.500000000000004 16.500000000000004 5.5000000000000009 17.500000000000004 20.500000000000004 24.500000000000004 461.50000000000006 0.30193447827214259 2.576652988580348 11.500000000000002 9.5000000000000018 22.500000000000004 164.62500000000003 331.50000000000006 5.5000000000000009 21.500000000000004 48.500000000000007 100.50000000000001 7.5000000000000009 3.5000000000000004 45.500000000000007 19.500000000000004 46.500000000000007 33.500000000000007
decision_type=2 2 2 2 2 2 2 2 2 2 2 2 2 2 2 2 2 2 2 2 2 2 2 2 2 2 2 2 2 2
left_child=1 3 5 11 10 13 18 24 22 12 -3 -1 -8 -2 17 -6 -12 -10 19 -4 -18 -14 -5 -24 -7 -9 -13 -19 -25 -11
right_child=2 4 6 8 15 7 9 25 14 29 16 26 21 -15 -16 -17 20 27 -20 -21 -22 -23 23 28 -26 -27 -28 -29 -30 -31
leaf_value=-0.0095401708703292051 -0.0040478609688580037 -0.0044547804743051526 0.0016992148379852742 -0.0033487000091458269 -0.0014275405908885754 -0.0013379940772201956 0.0018599935649679258 0.00098975382269696991 -0.0035206337801871762 0.0048526318505406384 -0.0045242201232097365 -0.0053203306914795011 0.0028350728869438171 -0.00050376665592193602 -0.0044924842756479347 0.0012785493399179171 -0.0020660110055296509 -0.0020458544215018097 -0.00012726290867878841 0.0038544087989043586 -0.00042975757785928929 0.00491424030491284 -0.0070577910698950289 -0.0055772287364710465 0.00084066771583843835 0.0030059133570234315 -0.0082133699173019045 0.0012055512660971055 -0.0030469605752399993 0.0069586476346012206
leaf_weight=38 32 45 81 53 38 41 52 47 31 50 22 63 50 70 47 126 135 22 26 79 123 189 50 44 158 119 21 26 35 64
leaf_count=38 32 45 81 53 38 41 52 47 31 50 22 63 50 70 47 126 135 22 26 79 123 189 50 44 158 119 21 26 35 64
internal_value=0 -0.00284164 0.00246831 -0.00485244 -0.00107345 0.000679646 0.00388168 0.00132107 -0.00394923 0.00458086 -0.00194391 -0.00713269 0.00401122 -0.00161564 -0.0026504 0.000651529 -0.00154037 -0.00155448 0.00235928 0.00276334 -0.00128594 0.00447927 -0.00484842 -0.00546458 0.000391798 0.00243507 -0.00604359 -0.000284676 -0.00445622 0.00603496
internal_weight=0 919 1058 430 489 467 591 365 308 405 325 122 291 102 126 164 280 79 186 160 258 239 182 129 199 166 84 48 79 114
internal_count=1977 919 1058 430 489 467 591 365 308 405 325 122 291 102 126 164 280 79 186 160 258 239 182 129 199 166 84 48 79 114
is_linear=0
shrinkage=0.005


Tree=22
num_leaves=31
num_cat=0
split_feature=31 69 36 23 36 35 38 37 18 74 40 36 17 12 46 69 23 36 30 39 23 67 39 6 26 40 59 60 16 21
split_gain=549.138 129.396 105.92 35.0709 29.0767 27.2272 24.9222 14.9633 14.2627 14.8035 13.8431 13.4617 13.1083 12.7103 10.9941 10.9236 8.46644 8.30154 7.95961 6.18133 6.1189 5.68753 5.49152 5.47869 5.31217 5.25919 4.9142 4.8974 4.8476 4.83437
threshold=63.500000000000007 0.27377349462165174 31.500000000000004 2.5000000000000004 23.500000000000004 27.500000000000004 17.500000000000004 16.500000000000004 14.500000000000002 69.250000000000014 4.5000000000000009 23.500000000000004 3.5000000000000004 5.5000000000000009 326.25000000000006 0.30193447827214259 11.500000000000002 51.500000000000007 0.098500000000000018 15.500000000000002 7.5000000000000009 330.50000000000006 5.5000000000000009 73.180555555555571 9.893437473475764 5.5000000000000009 44.500000000000007 35.500000000000007 -0.045633433384595933 9.5000000000000018
decision_type=2 2 2 2 2 2 2 2 2 2 2 2 2 2 2 2 2 2 2 2 2 2 2 2 2 2 2 2 2 2
left_child=1 3 5 13 12 15 18 20 -5 -10 -8 21 -3 -1 26 -2 -6 27 19 28 -7 -11 -16 -9 25 -23 -14 -12 -4 -19
right_child=2 4 6 8 16 7 10 23 9 11 17 -13 14 -15 22 -17 -18 29 -20 -21 -22 24 -24 -25 -26 -27 -28 -29 -30 -31
leaf_value=-0.0092081195910771688 -0.0040276217146310959 -0.0045057155815667882 0.0028591477301547199 -0.0056040521591073931 -0.0014204029425194389 -0.0013313041227619824 0.0021804827641622691 0.0020404122558468625 -0.0052818605315590661 -0.0054766025216806506 0.004960175404754969 0.00073069537590656961 -0.0024222885936498644 -0.005863269562651585 -0.0017570467939207312 -0.00050124783388205934 0.0012721565478141345 0.0051587952230427716 -0.00019467666447162629 0.0050217524170875555 0.00083646433498663249 -0.0029419234395027163 -0.00014694859174270075 0.004580115103721619 -0.0037477159268170038 0.00022226739985247451 -0.00535483917966485 0.0033816901113413555 0.0005866493875610417 0.0071370767787942348
leaf_weight=45 32 43 123 90 38 41 51 141 63 21 130 28 50 77 109 70 126 74 25 27 158 29 103 25 53 24 20 79 29 53
leaf_count=45 32 43 123 90 38 41 51 141 63 21 130 28 50 77 109 70 126 74 25 27 158 29 103 25 53 24 20 79 29 53
internal_value=0 -0.00282744 0.00245597 -0.00482818 -0.00106809 0.000676248 0.00386228 0.00131446 -0.00392949 -0.00323815 0.00460774 -0.00240748 -0.00193419 -0.00709703 -0.00154207 -0.00160756 0.000648271 0.00497617 0.00244808 0.00281718 0.000389839 -0.00309936 -0.000974782 0.0024229 -0.0026284 -0.00150908 -0.00326016 0.00436352 0.00242558 0.00598438
internal_weight=0 919 1058 430 489 467 591 365 308 218 387 155 325 122 282 102 164 336 204 179 199 127 212 166 106 53 70 209 152 127
internal_count=1977 919 1058 430 489 467 591 365 308 218 387 155 325 122 282 102 164 336 204 179 199 127 212 166 106 53 70 209 152 127
is_linear=0
shrinkage=0.005


Tree=23
num_leaves=31
num_cat=0
split_feature=31 69 36 23 36 35 38 37 40 40 34 60 69 82 74 23 47 30 36 39 15 18 74 39 36 40 17 64 3 16
split_gain=543.661 128.105 104.863 34.721 28.7866 26.9557 24.6736 14.8141 14.1662 13.7051 13.0035 12.6119 10.8146 10.017 8.45022 8.38199 8.22343 7.88021 7.77738 7.44464 7.20003 6.66467 6.55983 6.11967 6.08121 5.42554 5.35595 5.22952 4.88784 4.79924
threshold=63.500000000000007 0.27377349462165174 31.500000000000004 2.5000000000000004 23.500000000000004 27.500000000000004 17.500000000000004 16.500000000000004 5.5000000000000009 4.5000000000000009 20.500000000000004 24.500000000000004 0.30193447827214259 2.576652988580348 66.250000000000014 11.500000000000002 441.75000000000006 0.098500000000000018 22.500000000000004 3.5000000000000004 2.4072193586221799 4.5000000000000009 80.750000000000014 15.500000000000002 16.500000000000004 3.5000000000000004 6.5000000000000009 3.3920358649789031 3.5000000000000004 -0.045633433384595933
decision_type=2 2 2 2 2 2 2 2 2 2 2 2 2 2 2 2 2 2 2 2 2 2 2 2 2 2 2 10 2 2
left_child=1 3 5 11 10 12 17 24 21 -8 -3 -1 -2 18 -12 -6 -11 23 -10 -16 26 -5 -23 29 -7 -9 -18 28 -13 -4
right_child=2 4 6 8 15 7 9 25 13 16 14 27 -14 -15 19 -17 20 -19 -20 -21 -22 22 -24 -25 -26 -27 -28 -29 -30 -31
leaf_value=-0.0094517106680493609 -0.0040074835845734921 -0.0044192868057224485 0.0028448519728532652 -0.0069557513246933621 -0.0014133008765546899 -0.0017721289529332093 0.002169580371940837 0.00097244151095126534 -0.0025083299438681517 0.0027276612516190556 -0.0036207332516588813 -0.0080264166523428531 -0.00049874163099697659 -0.0044488329440355301 -0.0026387621379560895 0.0012657957512234885 0.003669470685588963 -0.00019370323717594147 0.00099153517660769547 -0.00063583948226137593 0.0068791270863126832 -0.005443395964197211 -0.0033652560751980701 0.004996643662452698 0.00074157675238032089 0.0029788676467763274 0.0053204064723630408 -0.0040637352347373959 -0.0051140567362308502 0.00058371610939502718
leaf_weight=38 32 45 123 30 38 28 51 47 57 37 41 34 70 47 63 126 68 25 22 176 54 74 78 27 171 119 177 25 25 29
leaf_count=38 32 45 123 30 38 28 51 47 57 37 41 34 70 47 63 126 68 25 22 176 54 74 78 27 171 119 177 25 25 29
internal_value=0 -0.0028133 0.00244369 -0.00480404 -0.00106275 0.000672866 0.00384296 0.00130789 -0.00390984 0.00458471 -0.00192452 -0.00706154 -0.00159952 -0.00262108 -0.00152357 0.000645029 0.00495129 0.00243584 -0.00153368 -0.00116381 0.00522645 -0.00480205 -0.00437698 0.00280309 0.00038789 0.00241078 0.00486219 -0.00598027 -0.00679237 0.00241345
internal_weight=0 919 1058 430 489 467 591 365 308 387 325 122 102 126 280 164 336 204 79 239 299 182 152 179 199 166 245 84 59 152
internal_count=1977 919 1058 430 489 467 591 365 308 387 325 122 102 126 280 164 336 204 79 239 299 182 152 179 199 166 245 84 59 152
is_linear=0
shrinkage=0.005


Tree=24
num_leaves=31
num_cat=0
split_feature=31 69 36 23 36 35 38 37 18 74 36 40 17 12 48 39 46 69 23 57 48 31 23 67 6 39 26 40 29 59
split_gain=538.238 126.827 103.817 34.3747 28.4995 26.6868 24.437 14.6663 14.0536 14.5545 13.2495 13.1728 12.9401 12.5051 11.5053 11.2868 10.8392 10.7067 8.29838 7.37269 7.31195 6.51285 6.04653 5.6247 5.42591 5.4002 5.25072 5.18969 4.94357 4.8639
threshold=63.500000000000007 0.27377349462165174 31.500000000000004 2.5000000000000004 23.500000000000004 27.500000000000004 16.500000000000004 16.500000000000004 14.500000000000002 69.250000000000014 23.500000000000004 17.500000000000004 3.5000000000000004 5.5000000000000009 123.50000000000001 7.5000000000000009 326.25000000000006 0.30193447827214259 11.500000000000002 164.62500000000003 331.50000000000006 90.500000000000014 7.5000000000000009 330.50000000000006 73.180555555555571 5.5000000000000009 9.893437473475764 5.5000000000000009 24.339500000000005 44.500000000000007
decision_type=2 2 2 2 2 2 2 2 2 2 2 2 2 2 2 2 2 2 2 2 2 2 2 2 2 2 2 2 2 2
left_child=1 3 5 13 12 17 19 22 -5 -10 23 14 -3 -1 -8 -16 29 -2 -6 20 -4 -17 -7 -11 -9 -18 27 -25 -13 -14
right_child=2 4 6 8 18 7 11 24 9 10 -12 28 16 -15 15 21 25 -19 -20 -21 -22 -23 -24 26 -26 -27 -28 -29 -30 -31
leaf_value=-0.0091202112833658859 -0.0039874459931161258 -0.0044698756967866144 0.0016691637710656649 -0.0055525366502503564 -0.0014062343773088956 -0.0013249834136265079 0.00083956518934832675 0.0020180906624870099 -0.0052304924569196174 -0.0054308643333968662 0.00073295629184160914 0.0069070205681266332 -0.0023976663716137408 -0.0058024793853620428 0.0014319846274391298 0.0031913576467797675 -0.0017377572547678556 -0.00049624792805739808 0.001259466837795954 -0.00014597434837084551 0.0038070792412456078 0.0051246627369097297 0.0008299264387239384 -0.0029089543775751674 0.0045455304920673373 -0.00014110206074795676 -0.0037112590129364208 0.0002342607981214921 0.0048165442579640796 -0.0053151686154305931
leaf_weight=45 32 43 81 90 38 41 27 141 63 21 28 62 50 77 31 58 109 70 126 26 79 175 158 29 25 103 53 24 52 20
leaf_count=45 32 43 81 90 38 41 27 141 63 21 28 62 50 77 31 58 109 70 126 26 79 175 158 29 25 103 53 24 52 20
internal_value=0 -0.00279923 0.00243147 -0.00478002 -0.00105743 0.000669502 0.00382375 0.00130135 -0.00389029 -0.00320404 -0.00238038 0.00451277 -0.00191489 -0.00702623 0.00394837 0.00426631 -0.0015253 -0.00159153 0.000641804 0.00232347 0.00272476 0.00464341 0.00038595 -0.00306679 0.00239873 -0.000962024 -0.00259844 -0.00148561 0.00595347 -0.00323124
internal_weight=0 919 1058 430 489 467 591 365 308 218 155 405 325 122 291 264 282 102 164 186 160 233 199 127 166 212 106 53 114 70
internal_count=1977 919 1058 430 489 467 591 365 308 218 155 405 325 122 291 264 282 102 164 186 160 233 199 127 166 212 106 53 114 70
is_linear=0
shrinkage=0.005


Tree=25
num_leaves=31
num_cat=0
split_feature=31 69 36 23 36 35 38 37 40 40 23 60 69 23 59 23 36 76 30 59 62 17 79 36 39 36 39 40 79 12
split_gain=532.869 125.562 102.782 34.0318 28.2152 26.4206 24.1952 14.52 13.9473 13.5035 12.8835 12.4313 10.5999 9.91782 8.55034 8.2156 8.12423 7.8361 7.78208 6.61436 8.14982 6.4783 6.329 6.28737 6.04712 6.00928 5.92655 5.37328 5.18288 4.90018
threshold=63.500000000000007 0.27377349462165174 31.500000000000004 2.5000000000000004 23.500000000000004 27.500000000000004 17.500000000000004 16.500000000000004 5.5000000000000009 4.5000000000000009 2.5000000000000004 24.500000000000004 0.30193447827214259 13.500000000000002 68.500000000000014 11.500000000000002 51.500000000000007 63.875000000000007 0.098500000000000018 48.500000000000007 135.50000000000003 5.5000000000000009 35.500000000000007 11.500000000000002 15.500000000000002 16.500000000000004 5.5000000000000009 3.5000000000000004 45.500000000000007 8.5000000000000018
decision_type=2 2 2 2 2 2 2 2 2 2 2 2 2 2 2 2 2 2 2 2 2 2 2 2 2 2 2 2 2 2
left_child=1 3 5 11 10 12 18 25 19 -8 -3 -1 -2 17 23 -6 -11 -10 24 -5 29 -22 -19 -12 -4 -7 -25 -9 -13 -21
right_child=2 4 6 8 15 7 9 27 13 16 14 28 -14 -15 -16 -17 -18 22 -20 20 21 -23 -24 26 -26 -27 -28 -29 -30 -31
leaf_value=-0.0093640894560437452 -0.0039675088657531886 -0.0050857908715461865 0.0023888474923411483 -0.003269052144210294 -0.0013992031859724145 -0.0017631851243121283 0.002141850681281557 0.00095533783765549358 -0.0046629668891711058 0.0042969549183497595 -0.0032939703286521964 -0.0052005479780454491 -0.00049376668887478965 -8.2685808340708414e-05 -0.0045214640122392905 0.0012531694302719738 0.0059004059290205402 0.0002667730338871479 -0.00020190679430961609 -0.0087863404732197534 -0.0057356031863270585 -0.0027563342834926313 -0.0035790826574615808 -0.0018254899282839673 0.0049566824044342392 0.00073560946299667249 -0.00024379201458188995 0.0029520774714085238 -0.0080687854545457034 -0.0056995726045635008
leaf_weight=38 32 29 152 53 38 28 51 47 53 209 36 63 70 30 23 126 127 20 25 20 37 36 23 121 27 171 116 119 21 36
leaf_count=38 32 29 152 53 38 28 51 47 53 209 36 63 70 30 23 126 127 20 25 20 37 36 23 121 27 171 116 119 21 36
internal_value=0 -0.00278524 0.00241931 -0.00475612 -0.00105215 0.000666155 0.00380463 0.00129484 -0.00387084 0.00453915 -0.00190532 -0.0069911 -0.00158357 -0.00259207 -0.00159372 0.000638595 0.00490302 -0.00337626 0.00241121 -0.00475613 -0.00536711 -0.00426637 -0.00179031 -0.00134706 0.00277617 0.00038402 -0.00105133 0.00238674 -0.00591761 -0.00680199
internal_weight=0 919 1058 430 489 467 591 365 308 387 325 122 102 126 296 164 336 96 204 182 129 73 43 273 179 199 237 166 84 56
internal_count=1977 919 1058 430 489 467 591 365 308 387 325 122 102 126 296 164 336 96 204 182 129 73 43 273 179 199 237 166 84 56
is_linear=0
shrinkage=0.005


Tree=26
num_leaves=31
num_cat=0
split_feature=31 69 37 23 36 37 47 39 21 39 60 35 39 17 18 46 18 76 40 29 26 40 29 59 6 16 64 38 1 40
split_gain=527.599 147.165 78.0069 37.8066 37.506 30.491 16.7995 15.4817 14.8639 14.0365 12.0906 10.9757 9.36439 8.56256 8.53543 8.28834 8.15571 6.89895 6.74797 6.36963 6.11497 5.883 6.25871 5.9305 5.70313 5.47152 5.34012 5.20767 5.15908 5.09255
threshold=68.500000000000014 0.27377349462165174 15.500000000000002 2.5000000000000004 23.500000000000004 30.500000000000004 450.25000000000006 6.5000000000000009 1.0000000180025095e-35 10.500000000000002 24.500000000000004 31.500000000000004 3.5000000000000004 3.5000000000000004 1.5000000000000002 326.25000000000006 15.500000000000002 59.625000000000007 3.5000000000000004 20.820000000000004 10.449474571993528 5.5000000000000009 70.377500000000012 48.500000000000007 45.375000000000007 -0.045633433384595933 3.3489130434782615 12.500000000000002 8.5000000000000018 7.5000000000000009
decision_type=2 2 2 2 2 2 2 2 2 2 2 2 2 2 2 2 2 2 2 2 2 2 2 2 2 2 10 2 2 2
left_child=1 3 11 10 8 6 -4 14 13 18 -1 20 -6 -3 -5 -10 -9 -13 -8 -7 -2 23 -23 -16 -11 -20 -12 -18 -15 -14
right_child=2 4 5 7 12 19 9 16 15 24 26 17 29 28 21 -17 27 -19 25 -21 -22 22 -24 -25 -26 -27 -28 -29 -30 -31
leaf_value=-0.0093172691919301692 -9.0907077704157157e-05 -0.0064095825098809747 0.0012802034457269898 -0.0069570109350927944 -0.0018835896736493819 0.00665070284217123 0.00070399896261539869 -0.0045156783129399018 -0.0030434361565858125 0.0031844410821795467 -0.0067453754314633664 -0.00032188371434563497 0.00023221308779385356 -0.0047897961754351853 -0.0031471590949005857 -0.00083483530288754873 -0.0021031173958402614 0.0017850910022715542 0.0034236243393272157 0.0046432406392018753 -0.0028752277136752102 -0.0016991545987683674 -0.0047706176271593136 -0.0054044421689791811 0.0047649995571909807 0.00061620553334554035 -0.0040392149211122439 0.00081077554465635963 -0.0016922758583252024 0.0019366120141265648
leaf_weight=38 49 21 117 29 27 63 47 24 52 90 61 61 72 20 43 232 46 107 100 106 33 43 27 90 156 21 26 23 41 112
leaf_count=38 49 21 117 29 27 63 47 24 52 90 61 61 72 20 43 232 46 107 100 106 33 43 27 90 156 21 26 23 41 112
internal_value=0 -0.00248425 0.00268561 -0.00462748 -0.000812752 0.00354185 0.00295313 -0.00372869 -0.00178066 0.00342592 -0.00696435 0.000288131 0.000866175 -0.00365586 -0.00441962 -0.00123923 -0.00200507 0.00102006 0.00231185 0.00539158 -0.00121143 -0.00405713 -0.00288386 -0.00467464 0.00418675 0.00293639 -0.00593664 -0.00113182 -0.00270786 0.00126967
internal_weight=0 1027 950 450 577 700 531 325 366 414 125 250 211 82 232 284 93 168 168 169 82 203 70 133 246 121 87 69 61 184
internal_count=1977 1027 950 450 577 700 531 325 366 414 125 250 211 82 232 284 93 168 168 169 82 203 70 133 246 121 87 69 61 184
is_linear=0
shrinkage=0.005


Tree=27
num_leaves=31
num_cat=0
split_feature=31 69 36 23 36 37 38 40 69 34 12 40 48 23 39 35 74 23 76 23 39 74 74 69 85 79 36 31 53 54
split_gain=522.445 123.043 100.914 33.3482 27.6459 27.1968 23.5262 13.7169 13.2363 12.7378 12.2462 11.6607 11.0939 9.75379 9.39893 9.11353 8.26925 8.117 7.73282 7.69517 7.24681 7.06799 6.52745 7.88074 6.36164 6.25027 6.188 6.09717 5.83254 6.56343
threshold=63.500000000000007 0.27377349462165174 32.500000000000007 2.5000000000000004 23.500000000000004 15.500000000000002 17.500000000000004 5.5000000000000009 0.30193447827214259 20.500000000000004 5.5000000000000009 18.500000000000004 123.50000000000001 13.500000000000002 7.5000000000000009 41.500000000000007 66.250000000000014 11.500000000000002 63.875000000000007 13.500000000000002 3.5000000000000004 114.25000000000001 77.750000000000014 0.22635713626430423 59.500000000000007 35.500000000000007 16.500000000000004 90.500000000000014 214.50000000000003 68.250000000000014
decision_type=2 2 2 2 2 2 2 2 2 2 2 2 2 2 2 2 2 2 2 2 2 2 2 2 2 2 2 2 2 2
left_child=1 3 5 10 9 8 21 22 24 -3 -1 12 -8 18 -14 19 -11 -6 -9 -7 -18 28 -5 -24 -2 -20 -10 -16 29 -4
right_child=2 4 6 7 17 15 11 13 26 16 -12 -13 14 -15 27 -17 20 -19 25 -21 -22 -23 23 -25 -26 -27 -28 -29 -30 -31
leaf_value=-0.0089934926099247397 -0.0046253813284894696 -0.0043559129569265579 6.6274451436819861e-05 -0.0058162311546794774 -0.0013941725265038641 -0.00068067310023165882 0.00077352908439934256 -0.0046202458975450047 -0.0020002042182854242 -0.0035645153482512732 -0.0057102745181167279 0.0059875593112351799 0.0015475181876509279 -7.582146177689235e-05 0.0032451522070914506 0.0030789581405939442 -0.0025892665550585774 0.0012422348931431771 0.00027766462415456771 0.0018516459912061693 -0.00061313508967445656 0.0039700149496396378 -0.0052825190223610178 -0.0025427843552996527 -0.0011041591188003278 -0.0035441936325767767 0.0005386608852339642 0.0051530823721943134 -0.00070755792781710628 0.00288820606024786
leaf_weight=45 23 45 27 77 38 42 24 53 28 41 77 104 27 30 56 101 63 126 20 105 176 51 52 53 29 23 168 166 20 87
leaf_count=45 23 45 27 77 38 42 24 53 28 41 77 104 27 30 56 101 63 126 20 105 176 51 52 53 29 23 168 166 20 87
internal_value=0 -0.00275786 0.00239553 -0.00470888 -0.00104224 0.000751803 0.00384622 -0.00383253 -0.000419012 -0.00188676 -0.0069213 0.00456285 0.0040201 -0.00256437 0.00433302 0.00192262 -0.00148993 0.00063136 -0.00334204 0.00112813 -0.00113404 0.00238585 -0.00471049 -0.00389961 -0.00266162 -0.00176659 0.000175966 0.0046718 0.00178293 0.00221985
internal_weight=0 919 1058 430 489 496 562 308 248 325 122 377 273 126 249 248 280 164 96 147 239 185 182 105 52 43 196 222 134 114
internal_count=1977 919 1058 430 489 496 562 308 248 325 122 377 273 126 249 248 280 164 96 147 239 185 182 105 52 43 196 222 134 114
is_linear=0
shrinkage=0.005


Tree=28
num_leaves=31
num_cat=0
split_feature=31 69 36 23 36 35 38 37 18 74 36 40 17 60 48 39 46 69 23 57 48 31 23 67 6 39 26 79 40 29
split_gain=517.233 121.816 99.9303 33.0156 27.3701 25.7978 23.5193 14.104 13.6542 14.1453 13.0112 12.8046 12.6435 12.1316 11.2513 10.9614 10.5608 10.3418 8.03603 7.23525 7.16202 6.35386 5.91912 5.53414 5.33115 5.24951 5.14135 5.10887 5.03662 4.84886
threshold=63.500000000000007 0.27377349462165174 31.500000000000004 2.5000000000000004 23.500000000000004 27.500000000000004 16.500000000000004 16.500000000000004 14.500000000000002 69.250000000000014 23.500000000000004 17.500000000000004 3.5000000000000004 24.500000000000004 123.50000000000001 7.5000000000000009 326.25000000000006 0.30193447827214259 11.500000000000002 164.62500000000003 331.50000000000006 90.500000000000014 7.5000000000000009 330.50000000000006 73.180555555555571 5.5000000000000009 9.893437473475764 45.500000000000007 4.5000000000000009 24.339500000000005
decision_type=2 2 2 2 2 2 2 2 2 2 2 2 2 2 2 2 2 2 2 2 2 2 2 2 2 2 2 2 2 2
left_child=1 3 5 13 12 17 19 22 -5 -10 23 14 -3 -1 -8 -16 -14 -2 -6 20 -4 -17 -7 -11 -9 -18 28 -15 -25 -13
right_child=2 4 6 8 18 7 11 24 9 10 -12 29 16 27 15 21 25 -19 -20 -21 -22 -23 -24 26 -26 -27 -28 -29 -30 -31
leaf_value=-0.0092308993872843286 -0.0039228975202422588 -0.0044028556884028189 0.0016304935754081348 -0.0054518243318630588 -0.0013872016534993523 -0.0013143698653069937 0.00079472493794229297 0.0019749590627690583 -0.0051347003738203686 -0.0053501187548750931 0.00076027509889432365 0.0067902752775098052 -0.0031761140131524629 -0.0051142947245684878 0.0013902580329487402 0.0031208391680285848 -0.0017010597870984209 -0.00049171531200408933 0.0012360236651840664 -0.00016863829527909938 0.003746377616366254 0.005030401080846787 0.00081771651212173176 -0.0030101243463846357 0.0044802320629358299 -0.00012683987798332012 -0.0036417584933059396 -0.0079619798348063518 7.3127546520144861e-05 0.0047199211771098469
leaf_weight=38 32 43 81 90 38 41 27 141 63 21 28 62 70 63 31 58 109 70 126 26 79 175 158 26 25 103 53 21 27 52
leaf_count=38 32 43 81 90 38 41 27 141 63 21 28 62 70 63 31 58 109 70 126 26 79 175 158 26 25 103 53 21 27 52
internal_value=0 -0.00274407 0.00238355 -0.00468533 -0.00103703 0.000654887 0.00374952 0.00127612 -0.00381337 -0.00313694 -0.00232495 0.00442548 -0.00187733 -0.00688669 0.00386902 0.00418344 -0.00149223 -0.00156816 0.000628203 0.00227768 0.00267521 0.00455506 0.000378442 -0.00300515 0.00235226 -0.000936227 -0.00254058 -0.00582622 -0.00143941 0.0058459
internal_weight=0 919 1058 430 489 467 591 365 308 218 155 405 325 122 291 264 282 102 164 186 160 233 199 127 166 212 106 84 53 114
internal_count=1977 919 1058 430 489 467 591 365 308 218 155 405 325 122 291 264 282 102 164 186 160 233 199 127 166 212 106 84 53 114
is_linear=0
shrinkage=0.005


Tree=29
num_leaves=31
num_cat=0
split_feature=31 69 37 23 36 37 47 39 21 39 60 35 39 17 18 46 18 76 40 29 26 40 29 59 6 16 64 38 1 40
split_gain=512.136 142.773 75.8901 36.7167 36.4029 29.771 16.4437 15.1625 14.6071 13.6834 11.7873 10.7334 9.20836 8.3924 8.3783 8.10027 7.96479 6.78588 6.6294 6.23973 6.04529 5.73295 6.14636 5.83984 5.60184 5.3621 5.26266 5.09509 5.07643 5.01378
threshold=68.500000000000014 0.27377349462165174 15.500000000000002 2.5000000000000004 23.500000000000004 30.500000000000004 450.25000000000006 6.5000000000000009 1.0000000180025095e-35 10.500000000000002 24.500000000000004 31.500000000000004 3.5000000000000004 3.5000000000000004 1.5000000000000002 326.25000000000006 15.500000000000002 59.625000000000007 3.5000000000000004 20.820000000000004 10.449474571993528 5.5000000000000009 70.377500000000012 48.500000000000007 45.375000000000007 -0.045633433384595933 3.3489130434782615 12.500000000000002 8.5000000000000018 7.5000000000000009
decision_type=2 2 2 2 2 2 2 2 2 2 2 2 2 2 2 2 2 2 2 2 2 2 2 2 2 2 10 2 2 2
left_child=1 3 11 10 8 6 -4 14 13 18 -1 20 -6 -3 -5 -10 -9 -13 -8 -7 -2 23 -23 -16 -11 -20 -12 -18 -15 -14
right_child=2 4 5 7 12 19 9 16 15 24 26 17 29 28 21 -17 27 -19 25 -21 -22 22 -24 -25 -26 -27 -28 -29 -30 -31
leaf_value=-0.0091847446090296686 -8.7561231790756684e-05 -0.0063399285858585716 0.0012536597551188915 -0.0068705376468855758 -0.0018739159267257761 0.0065644833102585778 0.00068290582362641689 -0.0044481299755473932 -0.0030016634520143269 0.0031343643251392577 -0.0066496321473453867 -0.00032585890810997762 0.00022356128113137349 -0.0047403657156974074 -0.0030912974520131598 -0.00081826425478633111 -0.0020648546468304552 0.001763778191721328 0.0033779349707067016 0.0045775976306143794 -0.0028559718484228308 -0.0016652384876858356 -0.004709009839980691 -0.0053312594625684953 0.004700824146469434 0.00059872925991103767 -0.0039631692893229995 0.0008173683965983598 -0.0016677579174681409 0.0019147273578814098
leaf_weight=38 49 21 117 29 27 63 47 24 52 90 61 61 72 20 43 232 46 107 100 106 33 43 27 90 156 21 26 23 41 112
leaf_count=38 49 21 117 29 27 63 47 24 52 90 61 61 72 20 43 232 46 107 100 106 33 43 27 90 156 21 26 23 41 112
internal_value=0 -0.00244758 0.00264596 -0.00455858 -0.000801209 0.0034905 0.00290878 -0.00367284 -0.00175478 0.00337653 -0.00686152 0.000281237 0.000852844 -0.00361371 -0.00435661 -0.00121804 -0.00196709 0.00100504 0.00227657 0.00531827 -0.00120168 -0.00399748 -0.00283926 -0.00460706 0.00412773 0.00289559 -0.00584678 -0.00110411 -0.00267517 0.00125297
internal_weight=0 1027 950 450 577 700 531 325 366 414 125 250 211 82 232 284 93 168 168 169 82 203 70 133 246 121 87 69 61 184
internal_count=1977 1027 950 450 577 700 531 325 366 414 125 250 211 82 232 284 93 168 168 169 82 203 70 133 246 121 87 69 61 184
is_linear=0
shrinkage=0.005


Tree=30
num_leaves=31
num_cat=0
split_feature=31 36 69 23 37 23 38 45 18 36 69 12 40 48 18 15 39 39 61 74 36 40 35 39 23 82 39 16 23 17
split_gain=507.131 109.696 107.801 32.5496 30.1864 24.0374 23.916 14.8007 14.327 14.163 14.0064 12.8819 11.3157 11.2614 10.4511 10.3667 9.27753 8.9477 7.5004 7.19299 7.1692 6.72982 6.5365 6.51379 5.69106 5.25157 5.19244 5.4854 5.04003 4.8867
threshold=61.500000000000007 32.500000000000007 0.27377349462165174 2.5000000000000004 15.500000000000002 9.5000000000000018 17.500000000000004 433.50000000000006 10.500000000000002 23.500000000000004 0.30193447827214259 5.5000000000000009 18.500000000000004 123.50000000000001 2.5000000000000004 1.0907324388318866 7.5000000000000009 10.500000000000002 206.50000000000003 70.750000000000014 14.500000000000002 5.5000000000000009 41.500000000000007 6.5000000000000009 25.500000000000004 2.7656586257859082 15.500000000000002 -0.045633433384595933 13.500000000000002 3.5000000000000004
decision_type=2 2 2 2 2 2 2 2 2 2 2 2 2 2 2 2 2 2 2 2 2 2 2 2 2 2 2 2 2 2
left_child=2 4 3 11 10 8 18 -7 -4 14 19 -1 13 -8 -5 -9 -15 22 26 -2 -12 -16 28 -11 -18 -23 27 -3 -6 -10
right_child=1 6 5 9 17 7 12 15 29 23 20 -13 -14 16 21 -17 24 -19 -20 -21 -22 25 -24 -25 -26 -27 -28 -29 -30 -31
leaf_value=-0.0090109016949480227 -0.0051046229377388957 0.0028164638714945835 -0.0067236352637410172 -0.0065864641778171067 -0.00091750800337006403 -0.0032768769511902656 0.00076874204874038694 -0.00048523889902805413 -0.0042563072543429295 -0.002898823554813862 -0.0025704985435890115 -0.0056194927465993087 0.0059045636961953 0.0015202069448100198 -0.0044654987673940407 0.0017975291176073587 0.0034900715906877777 0.0030949401110410692 -0.00028655841636161014 -0.0014321777028962971 0.00038027187049084781 -0.001737353120631767 0.002610570164221638 0.00092949596419930462 0.0051864000029811915 -0.0044808441902009343 0.0048548418469727041 0.00031215798523690966 0.0012732067301052892 -0.0017094810636570821
leaf_weight=44 20 115 20 40 41 37 25 193 23 25 23 77 104 27 140 67 74 93 24 40 196 53 53 20 149 26 24 27 73 104
leaf_count=44 20 115 20 40 41 37 25 193 23 25 23 77 104 27 140 67 74 93 24 40 196 53 53 20 149 26 24 27 73 104
internal_value=0 0.00224268 -0.00285948 -0.00465946 0.000626249 -0.00113652 0.00377388 -0.000318051 -0.00279016 -0.00378648 -0.000516013 -0.00685273 0.00449968 0.00396837 -0.00423633 0.000103013 0.00428834 0.00185198 0.00232611 -0.00265633 7.03736e-05 -0.00380708 0.0011598 -0.00119735 0.00462349 -0.00264027 0.00270384 0.00234029 0.000485318 -0.00217072
internal_weight=0 1108 869 425 539 444 569 297 147 304 279 121 379 275 259 260 250 260 190 60 219 219 167 45 223 79 166 142 114 127
internal_count=1977 1108 869 425 539 444 569 297 147 304 279 121 379 275 259 260 250 260 190 60 219 219 167 45 223 79 166 142 114 127
is_linear=0
shrinkage=0.005


Tree=31
num_leaves=31
num_cat=0
split_feature=31 69 36 23 36 35 38 37 40 40 34 12 47 39 62 36 23 23 57 48 23 74 59 8 76 23 39 6 68 23
split_gain=502.079 118.181 97.1417 32.0293 26.6564 25.2005 22.8495 13.684 13.314 12.4961 12.4572 11.8742 11.0492 10.1315 9.49977 8.08319 7.87608 7.35271 7.13146 7.05118 6.54581 6.5009 6.40847 7.98329 6.11725 5.80615 5.75343 5.24009 4.8334 4.81334
threshold=63.500000000000007 0.27377349462165174 31.500000000000004 2.5000000000000004 23.500000000000004 27.500000000000004 16.500000000000004 16.500000000000004 5.5000000000000009 17.500000000000004 20.500000000000004 5.5000000000000009 461.50000000000006 3.5000000000000004 149.50000000000003 9.5000000000000018 11.500000000000002 11.500000000000002 164.62500000000003 331.50000000000006 21.500000000000004 67.250000000000014 48.500000000000007 100.50000000000001 63.875000000000007 7.5000000000000009 5.5000000000000009 73.180555555555571 6.5772673751519237 33.500000000000007
decision_type=2 2 2 2 2 2 2 2 2 2 2 2 2 2 2 2 2 2 2 2 2 2 2 2 2 2 2 2 2 2
left_child=1 3 5 11 10 13 18 25 22 12 -3 -1 -8 -2 17 -12 -6 24 19 -4 -14 -17 -5 -24 -10 -7 -23 -9 -22 -11
right_child=2 4 6 8 16 7 9 27 14 29 15 -13 20 -15 -16 21 -18 -19 -20 -21 28 26 23 -25 -26 -27 -28 -29 -30 -31
leaf_value=-0.0088243605891863506 -0.004247348782821344 -0.0042932666498753762 0.0016024856287756085 -0.0031580177539924405 -0.001374063152623804 -0.0013027932567567361 0.001722952388226986 0.0019439310221173239 -0.0054111677492037413 0.0046022506415843963 -0.0043682770955968987 -0.0055913952500982727 0.0026573649048805235 -0.00063146711915339302 -0.00020265690192128674 -0.0030638238657265905 0.0012229250229540325 -0.00087257485674775161 -0.00018429027440456245 0.0037019321661961231 0.0051452557284098407 -0.0016758364882658828 -0.0067866495585069062 -0.004233610924521956 -0.0024243646524846553 0.00080884900651400596 -5.1210601986558352e-05 0.0044277147978544233 0.0032819663295927254 0.0066727282444480809
leaf_weight=45 26 45 81 53 38 41 52 141 40 50 22 77 50 76 33 40 126 23 26 79 143 110 50 79 30 158 108 25 46 64
leaf_count=45 26 45 81 53 38 41 52 141 40 50 22 77 50 76 33 40 126 23 26 79 143 110 50 79 30 158 108 25 46 64
internal_value=0 -0.00270357 0.00234838 -0.00461565 -0.00102219 0.000644 0.00369515 0.001258 -0.00375681 0.00436141 -0.00185146 -0.00678388 0.0038117 -0.00155316 -0.00250742 -0.00145903 0.000621184 -0.00332524 0.00224442 0.00263909 0.00426615 -0.00121095 -0.00462177 -0.00522316 -0.00413111 0.000373787 -0.000870976 0.00231799 0.00469176 0.00576462
internal_weight=0 919 1058 430 489 467 591 365 308 405 325 122 291 102 126 280 164 93 186 160 239 258 182 129 70 199 218 166 189 114
internal_count=1977 919 1058 430 489 467 591 365 308 405 325 122 291 102 126 280 164 93 186 160 239 258 182 129 70 199 218 166 189 114
is_linear=0
shrinkage=0.005


Tree=32
num_leaves=31
num_cat=0
split_feature=31 69 37 23 36 37 47 39 21 39 60 35 39 15 18 46 18 76 40 29 26 59 62 6 6 62 16 64 38 40
split_gain=497.148 138.531 73.79 35.647 35.4417 29.0524 16.0888 14.8482 14.3374 13.3234 11.5534 10.5009 9.02177 8.26792 8.19311 7.92155 7.80049 6.68267 6.51465 6.13801 5.97361 5.57971 6.92429 5.62938 5.5135 5.27532 5.24991 5.18441 5.00444 4.95678
threshold=68.500000000000014 0.27377349462165174 15.500000000000002 2.5000000000000004 23.500000000000004 30.500000000000004 450.25000000000006 6.5000000000000009 1.0000000180025095e-35 10.500000000000002 24.500000000000004 31.500000000000004 3.5000000000000004 0.71597689075630278 1.5000000000000002 326.25000000000006 15.500000000000002 59.625000000000007 3.5000000000000004 20.820000000000004 10.449474571993528 48.500000000000007 136.50000000000003 29.791666666666668 45.375000000000007 113.50000000000001 -0.045633433384595933 3.3920358649789031 12.500000000000002 2.5000000000000004
decision_type=2 2 2 2 2 2 2 2 2 2 2 2 2 2 2 2 2 2 2 2 2 2 2 2 2 2 2 10 2 2
left_child=1 3 11 10 8 6 -4 14 13 18 -1 20 -6 -3 -5 -10 -9 -13 -8 -7 -2 25 -23 -24 -11 -16 -20 29 -18 -12
right_child=2 4 5 7 12 19 9 16 15 24 27 17 -14 -15 21 -17 28 -19 26 -21 -22 22 23 -25 -26 -27 -28 -29 -30 -31
leaf_value=-0.009060104206988686 -8.4092923421032572e-05 -0.0060404929239302879 0.0012279112210385821 -0.0067807951261257306 -0.0018566947664927552 0.0064813161913364649 0.0006625368081508799 -0.0043854963981236027 -0.0029627429450360628 0.0030834953416552808 -0.008309418832262357 -0.00032963691431967939 0.0012383458654031806 -0.0025510551684118548 -0.0040566241956855121 -0.00080356436540725924 -0.002028305835859931 0.0017440483134205096 0.0033332597997039561 0.0045106915440761824 -0.0028360428796573118 -0.0058383697823717676 -0.0048191500664688646 -0.0020733621812292508 0.0046375554642425132 -0.0013012748560868204 0.00058328437663259956 -0.0038332807376980781 0.00082816333307520211 -0.005406945286024558
leaf_weight=38 49 24 117 29 27 63 47 24 52 90 24 61 184 58 38 232 46 107 100 106 33 58 40 35 156 32 21 25 23 38
leaf_count=38 49 24 117 29 27 63 47 24 52 90 24 61 184 58 38 232 46 107 100 106 33 58 40 35 156 32 21 25 23 38
internal_value=0 -0.00241149 0.00260695 -0.0044909 -0.000789771 0.00343973 0.00286507 -0.00361816 -0.00173066 0.00332775 -0.00676005 0.000275181 0.000842298 -0.00357235 -0.0042948 -0.00119891 -0.00193017 0.000991103 0.00224235 0.0052453 -0.00119158 -0.00393966 -0.00454105 -0.00353778 0.004069 -0.00279704 0.00285599 -0.00575543 -0.00107615 -0.00653048
